~o
<STREAMINFO> 1 39
<VECSIZE> 39<NULLD><MFCC_E_D_A_Z><DIAGC>
~h "@"
<BEGINHMM>
<NUMSTATES> 5
<STATE> 2
<NUMMIXES> 2
<MIXTURE> 1 3.110713e-01
<MEAN> 39
 1.747467e+00 -1.478725e-01 6.706465e-01 -1.887064e-01 -3.941420e-01 -4.064604e-01 -3.703452e-01 1.352332e-01 -2.038194e-01 -1.196637e-01 1.432927e-02 -1.099028e-01 6.158908e-01 8.911115e-02 -1.798279e-01 1.223944e-03 -8.250392e-02 -2.038061e-02 -4.251034e-02 -5.204986e-02 8.708396e-02 3.849027e-02 -3.081482e-02 -2.870415e-04 -2.154589e-03 1.443808e-02 1.996811e-02 3.087160e-02 -1.118257e-02 2.491492e-02 1.091979e-02 5.545890e-03 1.286850e-02 -1.909105e-02 2.464413e-03 9.718892e-03 -7.753604e-03 -1.072595e-03 -2.319012e-03
<VARIANCE> 39
 6.034908e+00 1.456125e+00 1.608652e+00 8.241304e-01 8.219493e-01 8.366735e-01 5.835401e-01 3.635566e-01 4.481232e-01 2.650835e-01 2.640845e-01 2.079617e-01 1.159712e-01 3.544029e-01 9.654783e-02 4.534939e-02 3.996444e-02 2.669493e-02 2.840344e-02 2.522476e-02 2.755541e-02 2.018233e-02 1.300417e-02 1.096731e-02 1.103705e-02 7.839499e-04 1.342564e-02 6.963281e-03 4.789804e-03 3.608621e-03 3.040313e-03 2.274730e-03 2.054986e-03 2.233406e-03 1.749745e-03 1.261586e-03 1.083366e-03 9.761183e-04 4.302718e-05
<GCONST> -6.479289e+01
<MIXTURE> 2 6.889251e-01
<MEAN> 39
 2.273942e+00 -4.459045e-01 8.334084e-01 -5.502616e-01 -8.193612e-01 -1.240145e+00 -8.501242e-01 -1.906386e-01 -3.716202e-01 -9.488831e-02 -3.148713e-01 -1.093014e-01 8.159564e-01 9.322786e-01 -1.455770e-01 1.205086e-01 -8.656345e-02 -1.237011e-01 -1.631138e-01 -1.238991e-01 -1.518687e-02 -4.330499e-02 1.222856e-02 -6.589727e-02 -4.275444e-02 5.603443e-02 -1.701031e-01 8.498517e-02 -4.118257e-02 5.576618e-02 6.192515e-02 8.564880e-02 5.523019e-02 6.683314e-03 2.389197e-02 5.560475e-03 2.060234e-02 -9.082170e-04 -2.388607e-02
<VARIANCE> 39
 2.347211e+00 1.497907e+00 1.337041e+00 9.574695e-01 5.964423e-01 5.758799e-01 4.630667e-01 3.674542e-01 3.768969e-01 3.193544e-01 3.322012e-01 1.881716e-01 7.601614e-03 4.564089e-01 1.418960e-01 8.728784e-02 5.742139e-02 4.121962e-02 4.312749e-02 3.163570e-02 2.593484e-02 2.662796e-02 1.913150e-02 2.628274e-02 1.575122e-02 1.393161e-03 4.746642e-02 1.703026e-02 8.427256e-03 6.824594e-03 4.995771e-03 5.029068e-03 3.899757e-03 3.560347e-03 3.207822e-03 2.892725e-03 2.751143e-03 1.885035e-03 2.298323e-04
<GCONST> -5.364212e+01
<STATE> 3
<NUMMIXES> 2
<MIXTURE> 1 4.503402e-01
<MEAN> 39
 2.488903e+00 -3.785190e-01 7.407176e-01 -3.470749e-02 -6.511167e-01 -9.902864e-01 -8.419170e-01 -5.646789e-02 -1.454631e-01 -5.717242e-02 5.857929e-02 -1.742679e-01 7.200335e-01 2.696063e-01 1.743277e-01 -3.224196e-02 7.234237e-02 4.344660e-02 4.106234e-02 1.470001e-02 -2.747730e-02 2.092479e-02 1.646154e-02 5.470740e-04 -3.382568e-02 -3.494195e-03 -3.368276e-01 9.926467e-02 -3.884082e-02 3.338793e-02 7.114273e-02 8.176602e-02 7.307404e-02 4.764768e-03 1.121408e-02 1.646783e-03 -3.054861e-03 1.857165e-02 -2.592836e-02
<VARIANCE> 39
 4.426426e+00 1.533638e+00 1.561220e+00 6.620175e-01 7.672011e-01 1.066430e+00 6.843288e-01 3.994451e-01 4.678144e-01 3.199458e-01 3.533960e-01 2.289719e-01 8.129273e-02 4.107305e-01 1.242845e-01 5.947361e-02 3.603705e-02 3.241928e-02 3.138271e-02 2.020676e-02 1.674493e-02 1.921546e-02 1.287302e-02 1.161615e-02 9.804947e-03 1.325053e-03 6.842943e-02 2.196694e-02 1.038274e-02 5.992876e-03 5.727424e-03 7.699155e-03 5.214830e-03 3.686513e-03 4.228461e-03 3.155621e-03 3.766871e-03 2.152370e-03 2.504250e-04
<GCONST> -5.112202e+01
<MIXTURE> 2 5.496520e-01
<MEAN> 39
 2.786638e+00 -1.327010e+00 8.509535e-01 -1.152514e+00 -8.208219e-01 -1.056191e+00 -5.876206e-01 2.543447e-01 -4.366526e-01 -9.687596e-02 -4.826283e-01 -3.408166e-02 8.594962e-01 7.306924e-02 -9.590006e-03 -2.516281e-02 2.459429e-02 2.421001e-02 9.122534e-03 -3.059700e-03 2.373642e-02 3.583530e-02 -7.819842e-03 -1.063428e-02 -6.624235e-03 -4.851283e-03 -3.381586e-02 1.768210e-01 -2.406166e-02 1.073296e-01 2.601055e-02 3.866093e-02 1.953518e-02 -6.205103e-02 1.051822e-03 5.947617e-04 1.465688e-02 -1.895531e-02 -1.270959e-02
<VARIANCE> 39
 1.417021e+00 1.049487e+00 1.200102e+00 7.858310e-01 6.125498e-01 6.610490e-01 5.929412e-01 4.277256e-01 4.896722e-01 3.699777e-01 3.669640e-01 2.200990e-01 6.111386e-03 1.272788e-01 1.096308e-01 4.791966e-02 4.185098e-02 2.920833e-02 2.353691e-02 2.031275e-02 2.057915e-02 1.662145e-02 1.542064e-02 1.078327e-02 1.157368e-02 3.134597e-04 3.467289e-02 1.123353e-02 7.207524e-03 5.435330e-03 5.541260e-03 5.406892e-03 5.102683e-03 4.292861e-03 3.672136e-03 3.668885e-03 2.755424e-03 1.951170e-03 1.212993e-04
<GCONST> -6.196286e+01
<STATE> 4
<NUMMIXES> 2
<MIXTURE> 1 4.340122e-01
<MEAN> 39
 -1.324244e-01 5.818059e-01 1.454837e-01 6.555516e-01 2.852291e-01 -4.426876e-02 1.319485e-01 1.489264e-01 1.066387e-01 -6.811053e-02 -2.944578e-02 8.618514e-02 2.237078e-01 -3.367393e-01 8.848919e-02 -3.987104e-02 6.239601e-02 7.832636e-02 8.162194e-02 6.138754e-02 1.423930e-03 2.184529e-02 3.066756e-03 2.415230e-02 2.020825e-02 -3.727505e-02 -8.708578e-02 -2.985820e-02 -1.140998e-02 -1.318011e-02 -1.033455e-03 9.840198e-03 5.667496e-03 6.822529e-03 3.573886e-03 1.772957e-03 5.579432e-03 3.653275e-03 -1.555914e-03
<VARIANCE> 39
 5.807769e+00 1.429208e+00 8.369012e-01 6.275876e-01 6.431332e-01 8.872121e-01 5.463564e-01 3.487010e-01 2.711218e-01 2.466770e-01 2.841967e-01 2.020094e-01 1.308179e-01 2.623460e-01 1.125005e-01 3.194637e-02 3.779465e-02 2.840568e-02 2.882574e-02 1.837033e-02 1.226512e-02 1.246052e-02 1.028243e-02 1.172966e-02 7.168843e-03 2.328340e-03 5.088116e-02 1.108550e-02 4.708068e-03 3.835455e-03 3.369592e-03 3.935593e-03 2.619459e-03 1.954307e-03 1.654284e-03 1.391429e-03 1.522021e-03 1.153208e-03 2.736589e-04
<GCONST> -6.307629e+01
<MIXTURE> 2 5.659830e-01
<MEAN> 39
 3.286099e+00 -7.104108e-01 4.207922e-01 -4.740359e-01 -5.335848e-01 -7.169539e-01 -7.942888e-01 8.414526e-02 -9.591792e-02 -8.197326e-02 -1.918077e-01 -2.996987e-01 7.853708e-01 2.663221e-02 2.837401e-01 -4.037148e-02 1.629731e-01 8.746511e-02 8.460627e-02 7.128347e-02 -8.513702e-02 -1.065702e-02 4.680812e-04 -7.535679e-03 -2.563939e-02 -2.647807e-02 -1.213387e-01 7.605226e-02 1.176562e-02 4.077955e-02 1.947776e-02 2.098491e-02 3.209802e-02 -2.189889e-02 -1.100041e-02 -9.678788e-04 2.833161e-03 1.122435e-02 -1.045645e-02
<VARIANCE> 39
 1.929944e+00 1.428575e+00 1.375157e+00 7.654550e-01 6.516336e-01 7.660112e-01 4.967094e-01 4.893263e-01 4.999087e-01 3.305350e-01 3.855827e-01 2.314202e-01 1.148339e-02 1.836964e-01 1.228441e-01 5.228408e-02 4.799868e-02 3.434049e-02 3.279578e-02 2.545024e-02 2.435639e-02 2.025807e-02 1.881790e-02 1.422322e-02 1.313174e-02 7.588994e-04 2.675171e-02 9.449047e-03 5.684583e-03 4.074343e-03 3.826315e-03 3.487261e-03 3.035238e-03 3.295536e-03 2.886773e-03 2.138338e-03 2.122562e-03 1.419235e-03 1.098173e-04
<GCONST> -6.116363e+01
<TRANSP> 5
 0.000000e+00 1.000000e+00 0.000000e+00 0.000000e+00 0.000000e+00
 0.000000e+00 3.557922e-01 6.442078e-01 0.000000e+00 0.000000e+00
 0.000000e+00 0.000000e+00 4.375586e-01 5.624414e-01 0.000000e+00
 0.000000e+00 0.000000e+00 0.000000e+00 5.516179e-01 4.483821e-01
 0.000000e+00 0.000000e+00 0.000000e+00 0.000000e+00 0.000000e+00
<ENDHMM>
~h "C"
<BEGINHMM>
<NUMSTATES> 5
<STATE> 2
<NUMMIXES> 2
<MIXTURE> 1 5.167520e-01
<MEAN> 39
 -1.184044e+00 5.344965e-01 -3.336161e-01 5.827430e-01 5.381822e-01 5.125700e-01 4.901153e-01 2.454737e-01 3.066511e-01 6.263097e-02 1.985449e-01 2.322628e-01 -1.100395e-01 -2.493530e-02 1.263890e-02 4.813923e-03 2.822637e-03 6.306869e-03 6.856132e-03 3.113956e-03 7.833152e-04 4.231053e-03 3.754018e-03 2.242801e-03 1.301870e-03 -8.909259e-04 1.583434e-03 -4.556192e-03 1.023340e-03 -1.734548e-03 -1.923365e-03 -7.520199e-04 1.980475e-04 -1.589704e-04 -6.259888e-04 -5.431025e-05 -1.010420e-04 -9.600666e-05 2.808765e-04
<VARIANCE> 39
 1.478244e+00 6.289658e-01 3.159142e-01 3.019381e-01 2.393457e-01 2.765346e-01 1.673684e-01 1.797651e-01 1.394215e-01 1.236487e-01 1.810297e-01 9.045188e-02 5.632366e-03 1.380684e-02 1.047184e-02 6.658239e-03 5.522524e-03 5.403184e-03 4.887599e-03 4.575463e-03 4.085849e-03 3.896352e-03 3.651075e-03 3.257775e-03 2.937980e-03 5.188553e-05 1.984876e-03 1.567307e-03 1.133656e-03 1.019094e-03 9.471448e-04 8.469382e-04 7.939214e-04 7.354884e-04 7.014520e-04 6.655891e-04 5.824794e-04 5.291536e-04 8.220378e-06
<GCONST> -1.194011e+02
<MIXTURE> 2 4.832334e-01
<MEAN> 39
 -2.730318e+00 5.754425e-01 1.580516e+00 -9.538907e-02 -2.515384e-01 -1.370973e-03 9.965607e-02 -8.313562e-02 6.325813e-02 -1.393543e-02 8.026665e-02 1.721852e-01 3.859186e-01 -7.022591e-01 -6.200378e-02 -1.175604e-01 1.782138e-02 1.148615e-01 1.308449e-01 6.151088e-02 3.988284e-02 8.675379e-02 1.672216e-02 1.882249e-02 3.447826e-02 -3.655224e-02 4.168877e-02 -6.296148e-02 -5.947356e-02 -2.047108e-02 -7.883210e-03 -1.459202e-02 -2.382252e-03 1.472516e-02 3.215151e-03 7.993687e-03 6.392828e-03 6.535847e-06 9.152940e-04
<VARIANCE> 39
 6.457767e+00 2.313342e+00 2.227362e+00 9.860291e-01 5.238345e-01 3.966935e-01 3.705818e-01 3.553051e-01 3.264981e-01 2.408704e-01 2.163677e-01 1.818415e-01 7.100412e-02 8.862727e-01 9.842853e-02 6.820242e-02 4.923188e-02 4.055495e-02 3.655689e-02 1.929406e-02 1.833192e-02 2.249594e-02 1.300944e-02 1.457996e-02 9.289992e-03 1.559916e-03 4.059822e-02 1.730786e-02 1.206901e-02 6.395923e-03 4.450882e-03 3.412860e-03 2.840274e-03 2.596346e-03 2.124896e-03 2.213893e-03 1.400949e-03 1.275655e-03 1.681579e-04
<GCONST> -5.679193e+01
<STATE> 3
<NUMMIXES> 2
<MIXTURE> 1 4.009426e-01
<MEAN> 39
 -5.713464e+00 9.250840e-01 1.637106e+00 -2.716545e-01 -7.748391e-02 2.368970e-01 -1.372151e-02 -1.653551e-01 1.747738e-01 -2.054976e-01 1.153716e-01 -1.243299e-02 5.407345e-01 -1.022085e+00 -2.204865e-01 -2.819223e-01 5.016039e-02 1.848183e-01 1.757543e-01 1.609154e-01 1.830469e-01 2.021299e-01 1.051429e-01 1.259893e-01 1.030323e-01 -5.488522e-02 4.027978e-01 -4.674465e-02 -2.480182e-02 -2.308541e-02 -5.244185e-02 -5.721395e-02 -7.489436e-03 -5.736786e-03 -3.878382e-02 2.506344e-02 -1.477955e-02 -2.661121e-03 4.809650e-03
<VARIANCE> 39
 2.333759e+00 1.213449e+00 9.427770e-01 7.409764e-01 4.636518e-01 2.638304e-01 3.180265e-01 2.283191e-01 2.206249e-01 2.089511e-01 1.902020e-01 1.513667e-01 9.438470e-03 3.378501e-01 1.365816e-01 5.197940e-02 4.067741e-02 3.533079e-02 1.863168e-02 1.121672e-02 1.454607e-02 1.079414e-02 1.181687e-02 1.250983e-02 7.775897e-03 1.191378e-03 3.510293e-02 1.746375e-02 1.117597e-02 6.419240e-03 6.294261e-03 3.429142e-03 3.152119e-03 3.204337e-03 2.035803e-03 2.601095e-03 2.035256e-03 1.416594e-03 1.735914e-04
<GCONST> -6.662130e+01
<MIXTURE> 2 5.990509e-01
<MEAN> 39
 -6.017695e+00 -2.037760e-01 1.710290e+00 -1.705088e-01 -1.469397e-01 4.573431e-01 2.308457e-01 1.472870e-01 2.529894e-01 1.288504e-01 5.536583e-02 2.829968e-01 4.571936e-01 -6.434600e-01 -3.249928e-01 -2.612722e-01 -1.072673e-01 -1.037041e-02 3.377512e-02 3.946239e-02 4.543687e-02 6.638765e-02 3.751050e-02 1.935727e-02 2.310762e-02 -1.946008e-02 4.307817e-01 6.902605e-02 -4.540266e-03 2.000977e-02 -3.711386e-02 -7.295279e-02 -2.862932e-02 -1.515244e-02 -4.345774e-02 -1.977845e-02 3.610125e-03 -1.918302e-02 5.706127e-03
<VARIANCE> 39
 3.714313e+00 1.139074e+00 9.542751e-01 8.410950e-01 4.199697e-01 2.906860e-01 2.148655e-01 1.823583e-01 1.895117e-01 1.364868e-01 1.521281e-01 9.962797e-02 2.926166e-02 3.849895e-01 7.099576e-02 4.784239e-02 3.107619e-02 2.518597e-02 2.199032e-02 1.181238e-02 9.215917e-03 8.239629e-03 7.109090e-03 6.028791e-03 5.806037e-03 1.035818e-03 4.996101e-02 1.412560e-02 9.126601e-03 6.517034e-03 4.879969e-03 3.990226e-03 2.206898e-03 2.212421e-03 1.934543e-03 1.570598e-03 1.622505e-03 1.168621e-03 2.206236e-04
<GCONST> -7.179268e+01
<STATE> 4
<NUMMIXES> 2
<MIXTURE> 1 6.479989e-01
<MEAN> 39
 -6.198698e+00 -5.119839e-02 1.029347e+00 -3.743487e-01 -2.094111e-01 1.596632e-01 2.690515e-01 1.666379e-01 3.397989e-01 1.883685e-01 3.109190e-01 3.024586e-01 4.330025e-01 2.797977e-01 1.258473e-01 -1.668587e-01 1.260088e-01 1.236203e-01 4.330216e-02 6.513689e-02 4.987274e-02 1.680322e-02 2.566297e-02 3.197638e-02 1.565502e-02 -5.468639e-02 3.108122e-01 5.858777e-02 8.039800e-03 4.170277e-02 1.684758e-02 -1.702385e-03 -8.461807e-03 -1.172621e-02 -2.239668e-02 -1.488998e-02 -1.737727e-02 -1.344320e-02 -6.529452e-03
<VARIANCE> 39
 4.310924e+00 1.578667e+00 8.278080e-01 8.675067e-01 5.210450e-01 3.618043e-01 2.658433e-01 2.177310e-01 2.239500e-01 1.592411e-01 1.738481e-01 1.075000e-01 3.128085e-02 3.371905e-01 8.869558e-02 4.553141e-02 4.788149e-02 3.171103e-02 1.640262e-02 1.262213e-02 1.151173e-02 9.665892e-03 8.595504e-03 6.661394e-03 5.741873e-03 2.511078e-03 4.756092e-02 1.958285e-02 7.011799e-03 6.639550e-03 5.416166e-03 3.329407e-03 2.304153e-03 2.079112e-03 1.881678e-03 1.428509e-03 1.175565e-03 1.043857e-03 3.065028e-04
<GCONST> -6.827631e+01
<MIXTURE> 2 3.519946e-01
<MEAN> 39
 -4.973188e+00 -2.775252e-01 1.232964e+00 -2.647291e-01 -4.392095e-01 1.341094e-01 1.691554e-01 5.222671e-02 1.873443e-01 7.023924e-02 1.530082e-01 2.033681e-01 4.486683e-01 1.300400e+00 7.785906e-02 -7.554676e-02 8.286984e-02 -6.647814e-02 -1.741786e-01 -4.584247e-02 -6.461275e-02 -1.334934e-01 -3.241595e-02 -5.420034e-02 -6.680091e-02 2.157396e-02 4.041691e-01 7.982718e-02 2.305402e-02 8.629018e-03 -5.191464e-03 -5.212139e-02 -3.765534e-02 -2.674812e-02 -4.501148e-02 -1.242826e-02 -2.110912e-02 -2.406243e-02 1.889533e-02
<VARIANCE> 39
 6.852293e+00 1.510282e+00 1.059191e+00 8.264023e-01 5.528465e-01 4.158402e-01 2.962130e-01 2.356740e-01 2.653668e-01 1.910896e-01 2.241894e-01 1.387230e-01 1.715829e-02 4.800175e-01 1.111697e-01 7.874276e-02 5.141645e-02 4.061051e-02 2.770433e-02 1.793434e-02 1.930650e-02 1.815641e-02 1.203877e-02 1.535824e-02 8.848745e-03 1.249585e-03 6.549812e-02 1.769805e-02 1.090672e-02 8.290393e-03 6.465049e-03 5.337499e-03 3.550955e-03 3.355109e-03 3.221021e-03 2.495172e-03 2.804809e-03 1.635848e-03 1.842034e-04
<GCONST> -5.828996e+01
<TRANSP> 5
 0.000000e+00 1.000000e+00 0.000000e+00 0.000000e+00 0.000000e+00
 0.000000e+00 8.194377e-01 1.805622e-01 0.000000e+00 0.000000e+00
 0.000000e+00 0.000000e+00 5.696067e-01 4.303933e-01 0.000000e+00
 0.000000e+00 0.000000e+00 0.000000e+00 6.412395e-01 3.587605e-01
 0.000000e+00 0.000000e+00 0.000000e+00 0.000000e+00 0.000000e+00
<ENDHMM>
~h "E"
<BEGINHMM>
<NUMSTATES> 5
<STATE> 2
<NUMMIXES> 2
<MIXTURE> 1 5.324047e-01
<MEAN> 39
 2.767248e+00 -1.540645e+00 4.294506e-01 -4.880239e-01 -8.957774e-01 -1.082496e+00 -4.877731e-01 5.616579e-01 1.994802e-01 -1.764051e-01 8.335334e-02 -2.420880e-01 8.008494e-01 3.200228e-01 -3.552366e-01 -1.549114e-02 -1.735489e-01 -1.282053e-01 -9.389174e-02 2.897562e-02 1.416586e-01 7.913727e-02 -5.195707e-02 1.165947e-02 -3.326253e-02 5.167379e-02 -1.332010e-01 7.990537e-02 -6.958219e-03 2.938998e-02 4.393553e-02 4.841502e-02 3.237887e-02 -2.784021e-02 -1.652325e-02 8.179926e-03 -1.196809e-02 7.090588e-03 -1.436322e-02
<VARIANCE> 39
 2.320822e+00 1.207179e+00 1.023503e+00 4.190344e-01 5.511065e-01 7.194127e-01 4.554325e-01 2.716629e-01 3.673373e-01 2.248147e-01 2.635385e-01 1.721636e-01 2.482872e-02 3.566185e-01 8.738604e-02 5.568579e-02 3.578208e-02 3.750869e-02 4.127226e-02 3.141889e-02 2.290602e-02 2.072379e-02 1.389056e-02 1.412722e-02 1.181797e-02 1.757012e-03 4.145958e-02 1.199875e-02 6.829388e-03 3.218232e-03 4.353066e-03 4.707872e-03 3.165699e-03 2.574468e-03 2.736488e-03 1.748478e-03 1.867752e-03 1.456413e-03 2.506375e-04
<GCONST> -6.122654e+01
<MIXTURE> 2 4.675901e-01
<MEAN> 39
 2.239422e+00 -1.735861e+00 8.719964e-01 -1.431860e+00 -9.512689e-01 -1.078347e+00 5.654471e-02 3.814308e-02 -3.986835e-01 -2.592300e-02 -6.563736e-01 -1.076787e-01 8.428284e-01 5.859815e-01 -2.942336e-01 5.244397e-02 -2.336372e-01 -9.106407e-02 -1.183259e-01 3.015133e-02 1.831945e-02 -8.164117e-02 -2.400124e-02 -1.249942e-01 -2.985481e-02 6.036795e-02 -2.178400e-01 1.023845e-01 -5.455347e-02 9.432974e-02 5.180741e-02 6.468262e-02 8.814399e-03 -5.156897e-04 2.545469e-02 -4.318875e-03 4.022155e-02 5.638223e-03 -2.280810e-02
<VARIANCE> 39
 1.924808e+00 1.958727e+00 9.361940e-01 7.914329e-01 4.920575e-01 3.914703e-01 4.773657e-01 4.340522e-01 2.077628e-01 3.346278e-01 1.784367e-01 1.525606e-01 9.198198e-03 3.010488e-01 1.374888e-01 6.501950e-02 5.045642e-02 3.688702e-02 3.344125e-02 3.030801e-02 2.195942e-02 1.324578e-02 1.647499e-02 1.363090e-02 1.026139e-02 1.890593e-03 3.776029e-02 2.306169e-02 7.147397e-03 6.491341e-03 4.947057e-03 4.444473e-03 3.933806e-03 3.378825e-03 2.001971e-03 2.936381e-03 1.892192e-03 1.601336e-03 2.198642e-04
<GCONST> -6.011937e+01
<STATE> 3
<NUMMIXES> 2
<MIXTURE> 1 4.489210e-01
<MEAN> 39
 2.512705e+00 -1.824532e+00 5.674642e-01 -8.369901e-01 -1.022732e+00 -1.199132e+00 -1.539789e-01 6.329235e-01 1.277948e-01 -2.265784e-01 -3.455133e-02 -2.020842e-01 8.554184e-01 -6.368086e-03 3.545278e-02 1.836617e-02 -3.606899e-03 -4.545094e-03 -5.213693e-04 4.293606e-02 1.234032e-02 -2.089753e-02 -1.637032e-02 -1.199907e-02 -3.262150e-03 6.015424e-03 -1.151834e-01 1.634238e-01 6.905236e-04 7.770088e-02 5.780504e-02 4.484222e-02 -2.709933e-04 -4.627565e-02 -1.915729e-02 1.064043e-02 2.328832e-03 4.189489e-03 -1.879773e-02
<VARIANCE> 39
 1.944419e+00 1.416340e+00 8.875285e-01 5.346066e-01 5.063558e-01 7.557865e-01 5.286356e-01 3.689644e-01 3.850633e-01 2.762033e-01 4.268339e-01 1.715705e-01 1.869945e-02 9.768783e-02 8.385695e-02 5.305448e-02 2.703801e-02 2.413040e-02 1.746617e-02 1.782516e-02 1.592094e-02 1.593128e-02 8.840937e-03 1.079194e-02 7.079012e-03 6.646378e-04 4.918072e-02 1.800762e-02 7.185156e-03 4.838406e-03 4.115162e-03 5.401680e-03 4.587731e-03 3.682146e-03 3.190230e-03 2.326089e-03 2.844900e-03 1.642542e-03 2.061541e-04
<GCONST> -6.400969e+01
<MIXTURE> 2 5.510765e-01
<MEAN> 39
 2.561450e+00 -2.408482e+00 4.288274e-02 -1.226150e+00 -6.197248e-01 -5.778931e-01 1.751963e-01 3.135570e-01 -7.221896e-02 -3.005738e-01 -4.771279e-01 -2.785898e-01 8.563322e-01 3.782510e-02 -4.036132e-02 -3.648701e-02 6.305290e-03 4.197707e-02 3.849949e-02 -5.621304e-03 -2.360297e-02 -9.734770e-03 -1.043669e-02 -7.959199e-03 1.493935e-03 -8.382103e-04 1.230251e-02 7.426539e-02 2.795696e-02 3.081902e-02 -4.739930e-05 -1.373803e-02 -3.067265e-02 -1.694668e-02 -5.907792e-03 1.098927e-02 1.209641e-02 4.254994e-03 -3.933010e-03
<VARIANCE> 39
 1.429233e+00 1.168878e+00 1.251042e+00 5.786235e-01 7.635812e-01 5.123078e-01 4.081649e-01 3.491656e-01 5.149585e-01 2.508762e-01 2.509210e-01 1.717818e-01 9.331204e-03 3.233814e-02 3.744143e-02 2.821372e-02 1.249576e-02 1.571512e-02 1.576822e-02 1.471789e-02 9.560895e-03 7.099146e-03 8.594699e-03 6.211217e-03 5.016383e-03 1.466497e-04 6.868246e-03 6.220109e-03 2.617292e-03 2.847536e-03 1.929946e-03 1.796257e-03 1.745893e-03 1.661915e-03 1.171927e-03 1.086093e-03 8.823816e-04 8.185534e-04 3.160432e-05
<GCONST> -8.689902e+01
<STATE> 4
<NUMMIXES> 2
<MIXTURE> 1 4.252911e-01
<MEAN> 39
 2.447188e+00 -7.998961e-01 7.450868e-01 -6.824062e-01 -9.303728e-01 -1.268257e+00 -2.206669e-01 4.513281e-02 -2.588339e-01 -1.600780e-01 -3.702931e-01 -1.795847e-01 8.189150e-01 -6.458361e-01 6.707994e-01 -1.482601e-02 2.862816e-01 1.769402e-01 1.367833e-01 2.424729e-02 -5.929260e-02 3.141584e-02 -3.467097e-03 4.058808e-02 2.334571e-02 -5.967368e-02 -3.401075e-01 4.328678e-02 -5.127041e-02 3.861935e-02 5.503194e-02 8.024228e-02 2.470252e-02 1.718941e-02 3.006077e-02 9.220946e-03 3.350352e-02 1.892960e-02 -2.145379e-02
<VARIANCE> 39
 1.882540e+00 1.764636e+00 1.002262e+00 7.858106e-01 5.867034e-01 5.273639e-01 4.862487e-01 4.397243e-01 3.362845e-01 2.626635e-01 4.237602e-01 1.661168e-01 7.388040e-03 3.237564e-01 9.872887e-02 6.784781e-02 4.097255e-02 2.855798e-02 2.808568e-02 2.806569e-02 1.682060e-02 1.718246e-02 1.480898e-02 1.817670e-02 9.548953e-03 1.712548e-03 3.480473e-02 2.331938e-02 7.857325e-03 6.088332e-03 3.664065e-03 3.844926e-03 3.449559e-03 3.229971e-03 2.621983e-03 2.134933e-03 3.029103e-03 1.470931e-03 1.824477e-04
<GCONST> -6.014791e+01
<MIXTURE> 2 5.747058e-01
<MEAN> 39
 2.672978e+00 -2.021029e+00 6.308652e-01 -1.098867e+00 -8.462489e-01 -6.889243e-01 -1.089567e-01 4.668413e-01 -3.176425e-01 -2.400407e-01 -3.726379e-01 -1.898719e-01 8.411603e-01 2.132804e-01 3.027482e-01 5.086688e-02 1.409793e-01 1.172141e-02 -1.022179e-02 -4.025287e-02 -1.330994e-01 -7.304031e-02 3.148269e-02 6.170215e-03 -1.712692e-02 -7.886775e-03 2.188847e-02 1.321765e-01 -4.071155e-03 7.209028e-02 1.194004e-02 -9.885570e-04 -6.146030e-03 -5.039903e-02 1.112466e-03 1.302603e-02 4.765898e-03 -5.270996e-03 -6.570082e-03
<VARIANCE> 39
 1.831625e+00 1.399632e+00 1.334697e+00 7.523093e-01 7.001883e-01 6.614292e-01 5.157388e-01 4.379489e-01 4.956996e-01 2.472077e-01 3.167160e-01 1.913301e-01 1.702156e-02 9.243881e-02 7.884832e-02 4.342740e-02 3.344934e-02 2.627692e-02 2.384144e-02 2.292540e-02 2.589550e-02 1.642727e-02 1.414189e-02 1.286500e-02 1.064849e-02 2.946554e-04 1.449061e-02 1.004917e-02 6.618319e-03 4.163614e-03 3.731035e-03 3.315229e-03 3.404406e-03 3.323467e-03 2.513573e-03 1.864529e-03 1.689182e-03 1.381088e-03 6.620612e-05
<GCONST> -6.714954e+01
<TRANSP> 5
 0.000000e+00 1.000000e+00 0.000000e+00 0.000000e+00 0.000000e+00
 0.000000e+00 5.249127e-01 4.750873e-01 0.000000e+00 0.000000e+00
 0.000000e+00 0.000000e+00 6.826290e-01 3.173710e-01 0.000000e+00
 0.000000e+00 0.000000e+00 0.000000e+00 5.101622e-01 4.898378e-01
 0.000000e+00 0.000000e+00 0.000000e+00 0.000000e+00 0.000000e+00
<ENDHMM>
~h "I"
<BEGINHMM>
<NUMSTATES> 5
<STATE> 2
<NUMMIXES> 2
<MIXTURE> 1 2.744905e-01
<MEAN> 39
 -1.621266e+00 7.945732e-01 9.957244e-01 3.098380e-01 -1.745976e-01 -3.200283e-01 9.550701e-02 1.087647e-01 -1.406771e-01 -4.961914e-02 5.280397e-02 1.165001e-01 3.301041e-01 5.318357e-01 5.759225e-03 3.299016e-01 -5.851885e-02 -1.790006e-01 -1.704104e-01 -1.026941e-01 -4.276630e-02 -1.131925e-01 -2.819681e-02 3.720040e-03 -3.658821e-02 5.923398e-02 7.589690e-02 -1.243139e-02 1.665717e-02 -1.027281e-02 -1.719425e-02 -3.013498e-03 -1.062975e-02 -5.624593e-03 -3.832812e-03 2.784068e-04 1.812228e-03 -6.943422e-03 1.084117e-02
<VARIANCE> 39
 7.667783e+00 1.754555e+00 1.495414e+00 6.184253e-01 6.703136e-01 1.023750e+00 4.239199e-01 3.204642e-01 3.547662e-01 2.224658e-01 2.090116e-01 1.760300e-01 9.768023e-02 8.271754e-01 1.045434e-01 1.132631e-01 5.348339e-02 4.630943e-02 5.397755e-02 3.255328e-02 2.417294e-02 2.181487e-02 1.236038e-02 2.085013e-02 1.257664e-02 4.996881e-03 5.602328e-02 1.430663e-02 9.539605e-03 5.690042e-03 6.606746e-03 7.398078e-03 3.727704e-03 2.528779e-03 2.917963e-03 1.810689e-03 1.947371e-03 1.459632e-03 4.434441e-04
<GCONST> -4.989048e+01
<MIXTURE> 2 7.255072e-01
<MEAN> 39
 2.288702e+00 -2.563103e-01 1.530754e+00 -3.497084e-01 -1.095942e+00 -1.141999e+00 -7.343403e-01 -2.196005e-01 -5.040321e-01 -8.513870e-02 -1.571689e-01 -6.676337e-02 7.936202e-01 4.497330e-01 -1.127556e-01 3.104881e-01 -1.259943e-01 -2.034648e-01 -1.331794e-01 -7.913055e-02 -6.090626e-03 -8.298174e-02 -6.895992e-03 -1.507839e-02 -4.777997e-03 5.262823e-02 -1.944814e-01 9.387625e-02 -4.995210e-02 3.847453e-02 6.012466e-02 6.938471e-02 4.891191e-02 1.446806e-03 2.306055e-02 2.978816e-03 9.178972e-03 -9.054660e-04 -1.902773e-02
<VARIANCE> 39
 2.979025e+00 1.965597e+00 1.244823e+00 1.043434e+00 4.631359e-01 4.993232e-01 4.450895e-01 4.517669e-01 3.509222e-01 2.935083e-01 2.609418e-01 1.886767e-01 1.347619e-02 6.084423e-01 1.190355e-01 7.095256e-02 6.199531e-02 4.109088e-02 4.206539e-02 3.261375e-02 3.002026e-02 2.441381e-02 1.969776e-02 2.200194e-02 1.517593e-02 2.963267e-03 5.486418e-02 2.042528e-02 8.692037e-03 6.938868e-03 4.585279e-03 4.619305e-03 3.936410e-03 4.031885e-03 3.120499e-03 2.628864e-03 2.220129e-03 1.811345e-03 2.214079e-04
<GCONST> -5.263387e+01
<STATE> 3
<NUMMIXES> 2
<MIXTURE> 1 5.689079e-01
<MEAN> 39
 2.135616e+00 -2.705207e-01 2.209852e+00 6.952170e-02 -1.436209e+00 -1.219783e+00 -5.376983e-01 1.004348e-01 -5.682691e-01 -3.905162e-01 4.556611e-01 -1.395157e-01 7.786049e-01 -5.390283e-02 1.257349e-01 1.667734e-01 -8.749001e-04 -4.256206e-02 2.429967e-02 4.207071e-02 3.475914e-03 -2.795639e-02 5.440817e-04 1.746361e-02 -7.825184e-03 4.031883e-03 -1.809343e-01 1.029561e-01 -8.637675e-02 2.943478e-02 1.058827e-01 7.117708e-02 3.683778e-02 -2.152090e-02 2.741115e-02 3.356630e-02 -3.979990e-02 7.112417e-03 -2.002280e-02
<VARIANCE> 39
 2.393356e+00 1.396342e+00 1.106165e+00 4.498600e-01 5.023302e-01 7.908719e-01 4.699702e-01 3.100809e-01 3.570722e-01 1.892087e-01 2.552228e-01 1.824671e-01 2.717807e-02 2.845351e-01 7.510932e-02 5.160613e-02 2.400753e-02 3.235197e-02 2.567387e-02 1.771288e-02 1.406728e-02 1.544085e-02 1.024130e-02 1.178042e-02 9.402519e-03 1.374109e-03 8.174438e-02 1.727333e-02 8.870114e-03 5.084326e-03 4.588069e-03 6.833915e-03 5.017884e-03 3.912399e-03 3.414724e-03 1.932110e-03 2.005299e-03 2.178087e-03 1.855904e-04
<GCONST> -6.105016e+01
<MIXTURE> 2 4.310866e-01
<MEAN> 39
 1.858357e+00 -3.050038e-01 2.219436e+00 -1.501040e+00 -1.315841e+00 -1.133784e+00 -5.776514e-01 -4.572793e-01 -7.968848e-01 4.015828e-01 -5.755159e-01 -1.023545e-02 8.539440e-01 -3.017400e-02 2.000551e-01 1.080075e-01 2.896531e-03 -2.650386e-02 3.133709e-02 -3.500461e-03 -3.931249e-02 5.845982e-04 -2.551759e-02 -2.447998e-02 -2.308044e-02 3.053986e-03 -1.887735e-01 1.190127e-01 -1.253839e-01 1.341519e-01 7.391393e-02 6.770689e-02 3.583879e-02 2.720842e-03 4.981207e-02 -4.323944e-02 3.361037e-02 -1.486982e-02 -2.322355e-02
<VARIANCE> 39
 1.859161e+00 1.962546e+00 1.223659e+00 1.007878e+00 5.111271e-01 5.005665e-01 5.428956e-01 5.300863e-01 3.293889e-01 2.616201e-01 2.219707e-01 2.168494e-01 9.417156e-03 3.193639e-01 1.052905e-01 6.804375e-02 5.882348e-02 2.384933e-02 2.114211e-02 1.960140e-02 1.968030e-02 1.688715e-02 1.952451e-02 1.394432e-02 1.121654e-02 1.453203e-03 7.483663e-02 2.215901e-02 9.931023e-03 8.144678e-03 6.559960e-03 6.093950e-03 5.895336e-03 5.990339e-03 3.544684e-03 2.916553e-03 2.915359e-03 2.322188e-03 3.065461e-04
<GCONST> -5.493385e+01
<STATE> 4
<NUMMIXES> 2
<MIXTURE> 1 5.391435e-01
<MEAN> 39
 6.792057e-01 1.541928e+00 2.693995e+00 -2.421558e-01 -1.150289e+00 -8.565258e-01 -4.387963e-01 -5.264722e-01 -6.074352e-01 -1.633359e-01 -4.000849e-02 -1.403877e-01 7.286456e-01 -1.029280e+00 2.228913e-01 -6.647079e-02 1.436465e-01 2.384744e-01 2.190699e-01 1.019183e-01 2.564676e-02 1.438297e-01 -1.895488e-02 3.066855e-03 3.159133e-02 -4.989011e-02 -2.849815e-01 -1.223914e-01 -1.444462e-01 5.629910e-03 6.632533e-02 4.720650e-02 3.730778e-02 4.365822e-02 4.557634e-02 1.422539e-02 1.448807e-02 1.899700e-02 -1.589917e-02
<VARIANCE> 39
 2.835426e+00 1.283059e+00 9.933217e-01 9.604525e-01 4.088715e-01 4.325565e-01 3.446111e-01 4.253120e-01 2.747531e-01 2.386636e-01 2.528507e-01 2.091614e-01 1.200288e-02 2.883374e-01 1.136945e-01 6.565561e-02 4.660301e-02 2.992989e-02 2.803626e-02 2.594621e-02 1.788528e-02 1.334215e-02 2.071418e-02 1.932787e-02 1.127713e-02 1.276981e-03 3.336974e-02 1.071989e-02 6.542415e-03 5.838166e-03 4.052027e-03 3.673116e-03 2.899176e-03 2.928540e-03 1.950699e-03 2.200872e-03 2.120445e-03 1.644055e-03 1.646357e-04
<GCONST> -6.260937e+01
<MIXTURE> 2 4.608533e-01
<MEAN> 39
 2.744501e+00 -4.809602e-01 1.603418e+00 -4.385273e-01 -1.134346e+00 -9.331580e-01 -5.753000e-01 9.464874e-02 -5.207594e-01 -1.638489e-01 -1.112134e-01 -1.162019e-01 7.927005e-01 1.891383e-01 3.356297e-01 -1.074827e-01 1.517955e-01 9.185066e-02 7.238077e-02 8.268835e-02 -1.122543e-01 -1.239533e-02 1.626803e-02 -5.071915e-02 -4.646719e-02 -1.774470e-02 -6.907859e-02 7.427455e-02 -5.783934e-02 5.382377e-02 4.214925e-02 2.361926e-02 2.583632e-02 -4.059814e-02 1.005376e-02 1.452126e-02 -1.544603e-03 -2.774716e-03 -1.076022e-02
<VARIANCE> 39
 2.450048e+00 1.447020e+00 1.333653e+00 8.915951e-01 6.485728e-01 6.520126e-01 5.717871e-01 4.510806e-01 4.724592e-01 3.165418e-01 3.909067e-01 2.193725e-01 2.856026e-02 2.818073e-01 1.063157e-01 6.023536e-02 4.191104e-02 3.257221e-02 2.545431e-02 2.594819e-02 2.693109e-02 2.036336e-02 1.694135e-02 1.470973e-02 1.244055e-02 1.214173e-03 3.914501e-02 1.082721e-02 7.021993e-03 5.169035e-03 4.453851e-03 4.137855e-03 3.491258e-03 3.533756e-03 3.035082e-03 2.388685e-03 2.307453e-03 1.637579e-03 1.502862e-04
<GCONST> -5.747255e+01
<TRANSP> 5
 0.000000e+00 1.000000e+00 0.000000e+00 0.000000e+00 0.000000e+00
 0.000000e+00 4.556460e-01 5.443540e-01 0.000000e+00 0.000000e+00
 0.000000e+00 0.000000e+00 5.146746e-01 4.853253e-01 0.000000e+00
 0.000000e+00 0.000000e+00 0.000000e+00 4.199837e-01 5.800163e-01
 0.000000e+00 0.000000e+00 0.000000e+00 0.000000e+00 0.000000e+00
<ENDHMM>
~h "N"
<BEGINHMM>
<NUMSTATES> 5
<STATE> 2
<NUMMIXES> 2
<MIXTURE> 1 5.042062e-01
<MEAN> 39
 4.205649e+00 -1.018808e-01 5.352380e-01 -3.957458e-01 -1.089071e+00 -2.199010e-01 2.984939e-02 1.049382e-01 -1.154364e+00 -1.403750e-02 3.938565e-01 -5.592176e-01 8.016511e-01 3.483203e-01 3.860361e-01 -9.747439e-02 2.251940e-01 -1.134729e-02 1.844502e-03 1.291335e-01 -1.633184e-01 -1.255857e-01 1.039266e-01 -1.682388e-02 -7.512195e-02 -1.672221e-02 -3.449975e-02 -1.507573e-02 -2.725365e-02 3.919527e-02 3.060579e-02 -9.357224e-03 -1.455258e-02 -2.916147e-02 6.251002e-02 2.091486e-03 -3.448131e-02 2.544112e-02 -2.693965e-03
<VARIANCE> 39
 3.038707e+00 1.189227e+00 2.286275e+00 6.897904e-01 8.630989e-01 6.708308e-01 4.288533e-01 4.119767e-01 3.844318e-01 3.211867e-01 3.013824e-01 2.479634e-01 7.003715e-03 8.921627e-02 8.348051e-02 1.018418e-01 3.457209e-02 5.290283e-02 3.288081e-02 2.551730e-02 2.510378e-02 2.463059e-02 1.819217e-02 1.445289e-02 1.238589e-02 2.183427e-04 2.335102e-02 6.674390e-03 1.026038e-02 4.937356e-03 4.249866e-03 5.914701e-03 2.969702e-03 2.826281e-03 2.286732e-03 2.478636e-03 2.044978e-03 1.664939e-03 5.429293e-05
<GCONST> -6.296188e+01
<MIXTURE> 2 4.957922e-01
<MEAN> 39
 3.897317e+00 2.113004e-01 4.178541e-01 -1.348975e+00 -1.166258e+00 -1.389160e-02 -2.115610e-01 -7.559088e-01 -9.800245e-01 2.479747e-01 -8.628003e-01 -4.298408e-01 8.355840e-01 3.111474e-01 2.230418e-01 -8.031504e-02 2.554534e-01 -1.074329e-01 -1.411434e-03 3.394208e-02 -1.568508e-01 5.143623e-02 -2.125152e-02 -8.078093e-02 1.439498e-02 -3.839440e-03 -6.951746e-03 -3.636160e-02 -7.698087e-03 5.085479e-02 5.813101e-03 -2.587396e-02 -2.823200e-02 9.602294e-03 3.182900e-02 -2.417365e-02 2.653132e-02 1.079846e-02 -4.139956e-04
<VARIANCE> 39
 3.517966e+00 1.222427e+00 2.045724e+00 1.107172e+00 7.141798e-01 5.305456e-01 5.099818e-01 3.511241e-01 3.600627e-01 3.691590e-01 3.735501e-01 2.606108e-01 2.804498e-02 1.272408e-01 6.862482e-02 1.151524e-01 4.806723e-02 4.723324e-02 2.607958e-02 2.595899e-02 1.562720e-02 1.648625e-02 2.051351e-02 1.361195e-02 1.282960e-02 1.139175e-04 1.257597e-02 6.456934e-03 8.857350e-03 6.847674e-03 4.036473e-03 3.556699e-03 3.062899e-03 2.621083e-03 1.973634e-03 2.638881e-03 1.874912e-03 1.609615e-03 1.479709e-05
<GCONST> -6.483988e+01
<STATE> 3
<NUMMIXES> 2
<MIXTURE> 1 5.091667e-01
<MEAN> 39
 5.604505e+00 4.490017e-01 -3.283401e-01 5.538996e-01 -1.073770e+00 -4.488236e-01 4.730208e-01 -6.131795e-01 -9.365343e-01 3.203008e-01 9.081630e-02 -5.220956e-01 7.553127e-01 -2.920361e-03 2.245707e-01 5.007367e-02 1.452738e-01 2.283163e-02 -1.899230e-02 4.779937e-02 -7.426932e-02 -1.141417e-02 2.513023e-02 -2.290855e-02 6.776965e-03 -1.770836e-02 -1.915850e-01 -5.063827e-02 3.856897e-02 -6.936083e-02 5.034550e-02 3.166667e-02 -4.777241e-02 5.295054e-02 3.770570e-02 -3.137127e-02 4.177024e-03 2.422321e-02 -4.366877e-03
<VARIANCE> 39
 1.307509e+00 8.318859e-01 7.879965e-01 5.822737e-01 4.872232e-01 4.180528e-01 3.168782e-01 4.529015e-01 3.662273e-01 3.521734e-01 2.641795e-01 2.059612e-01 8.942138e-03 8.388028e-02 7.928204e-02 5.725368e-02 3.730116e-02 2.914888e-02 2.342288e-02 2.039556e-02 2.172279e-02 1.599668e-02 1.280921e-02 1.057014e-02 9.024235e-03 2.898068e-04 2.246010e-02 1.117082e-02 9.878785e-03 5.200491e-03 5.923702e-03 4.236253e-03 3.261257e-03 3.930208e-03 3.700090e-03 2.467133e-03 2.305358e-03 1.785143e-03 8.614609e-05
<GCONST> -6.768549e+01
<MIXTURE> 2 4.908323e-01
<MEAN> 39
 4.904560e+00 2.961740e-01 1.525398e-01 -4.023982e-01 -1.457500e+00 -1.092601e-01 -3.874020e-01 -1.103752e+00 -5.462377e-01 -6.746221e-02 -8.241484e-01 -3.640440e-01 8.373508e-01 1.948645e-02 9.961919e-02 4.807527e-03 1.336175e-01 -1.348899e-02 -1.865501e-02 -2.359407e-02 -4.487418e-02 2.907052e-02 -1.971860e-02 2.214401e-02 9.731702e-03 -7.931835e-03 -1.106354e-01 -1.008608e-02 1.706402e-03 -2.887137e-02 5.510532e-02 -8.918989e-03 3.794827e-03 3.790877e-02 -1.857850e-02 1.143675e-02 2.031310e-02 -4.972152e-03 -4.948732e-03
<VARIANCE> 39
 2.199202e+00 1.169189e+00 6.308747e-01 8.363647e-01 7.252881e-01 4.063166e-01 4.360377e-01 3.206811e-01 2.864989e-01 2.428655e-01 3.107117e-01 2.929031e-01 2.353273e-02 6.961422e-02 5.119339e-02 3.602314e-02 3.437590e-02 2.491451e-02 1.442644e-02 1.235379e-02 1.267309e-02 1.054197e-02 1.086471e-02 8.824901e-03 6.724118e-03 1.564811e-04 1.877527e-02 6.800259e-03 8.033581e-03 6.289304e-03 6.374273e-03 3.150195e-03 3.105020e-03 2.707430e-03 1.900084e-03 1.876495e-03 1.932900e-03 1.362185e-03 5.281300e-05
<GCONST> -7.321339e+01
<STATE> 4
<NUMMIXES> 2
<MIXTURE> 1 5.662944e-01
<MEAN> 39
 5.184983e+00 1.515890e+00 1.076948e-01 3.333143e-01 -1.056630e+00 -3.065717e-01 1.055768e-01 -8.472096e-01 -8.949111e-01 4.987742e-02 -2.870643e-01 -4.523188e-01 7.246703e-01 -8.279642e-01 1.496815e-01 -2.765734e-04 1.336417e-01 2.678260e-01 9.310584e-02 2.176524e-03 8.873588e-02 1.047833e-01 -2.180901e-02 3.556575e-02 6.695161e-02 -6.902785e-02 -3.804378e-01 -1.745795e-01 -4.614682e-02 -3.123809e-02 7.095094e-02 1.990888e-02 -2.495100e-02 6.684975e-02 5.208493e-02 2.353751e-03 2.090468e-02 2.415674e-02 -1.490144e-02
<VARIANCE> 39
 1.429366e+00 9.041270e-01 6.887531e-01 6.911267e-01 6.224824e-01 4.391190e-01 4.848939e-01 5.418792e-01 3.401680e-01 2.590590e-01 4.046537e-01 2.029640e-01 1.221034e-02 2.467179e-01 9.720401e-02 6.627855e-02 5.006424e-02 4.227671e-02 4.073508e-02 2.473709e-02 2.258898e-02 2.146719e-02 1.601553e-02 2.211349e-02 1.201446e-02 7.792036e-04 2.333733e-02 1.311083e-02 9.992473e-03 7.240226e-03 6.100117e-03 4.386920e-03 4.382953e-03 3.653936e-03 2.962633e-03 2.309677e-03 2.727807e-03 1.658662e-03 1.138472e-04
<GCONST> -5.991032e+01
<MIXTURE> 2 4.337055e-01
<MEAN> 39
 3.192866e+00 4.358066e-01 -3.383776e-02 1.433959e-01 -3.951038e-01 -2.259122e-01 -7.356706e-04 -3.435498e-01 -6.584792e-01 1.560123e-01 -1.409057e-02 -2.871388e-01 6.129799e-01 -4.080586e-01 -1.210974e-01 6.622976e-02 -9.771632e-02 9.942354e-02 -4.752224e-02 -3.663696e-02 1.290944e-01 3.562840e-02 -3.532240e-02 1.176033e-02 2.965331e-02 -1.447705e-02 -3.059337e-02 -4.654371e-02 1.303631e-02 -1.688708e-02 -1.140360e-02 -1.874771e-04 -4.503717e-03 1.448519e-02 2.105390e-02 -1.510434e-02 -9.901914e-03 7.629388e-03 1.829531e-03
<VARIANCE> 39
 4.859482e+00 1.206893e+00 1.027132e+00 1.189821e+00 9.940094e-01 5.847322e-01 5.118046e-01 5.489828e-01 5.681478e-01 2.697602e-01 4.914429e-01 3.468355e-01 1.018992e-01 2.041989e-01 6.670307e-02 5.406477e-02 4.228691e-02 3.876388e-02 2.607874e-02 2.991866e-02 2.839717e-02 2.252999e-02 1.530527e-02 1.447739e-02 1.062188e-02 8.483804e-04 1.670608e-02 6.728508e-03 5.876707e-03 4.431052e-03 3.618886e-03 2.879088e-03 2.875292e-03 3.021849e-03 2.434365e-03 1.651109e-03 1.632376e-03 1.368231e-03 6.460630e-05
<GCONST> -6.012149e+01
<TRANSP> 5
 0.000000e+00 1.000000e+00 0.000000e+00 0.000000e+00 0.000000e+00
 0.000000e+00 5.375115e-01 4.624885e-01 0.000000e+00 0.000000e+00
 0.000000e+00 0.000000e+00 6.761635e-01 3.238365e-01 0.000000e+00
 0.000000e+00 0.000000e+00 0.000000e+00 5.851124e-01 4.148876e-01
 0.000000e+00 0.000000e+00 0.000000e+00 0.000000e+00 0.000000e+00
<ENDHMM>
~h "O"
<BEGINHMM>
<NUMSTATES> 5
<STATE> 2
<NUMMIXES> 2
<MIXTURE> 1 5.828113e-01
<MEAN> 39
 4.245275e+00 -2.441034e-01 -1.118824e+00 -1.713896e+00 -4.192377e-01 5.191209e-01 -2.498040e-01 -4.361327e-01 -1.447804e-01 8.772878e-02 2.956949e-01 -5.666380e-02 8.108341e-01 8.783004e-01 -1.857269e-01 -1.346253e-01 -3.583058e-01 -1.402937e-01 1.222226e-01 3.813041e-02 -2.821620e-02 3.282372e-02 -8.839358e-03 5.055379e-02 -7.345873e-03 6.282844e-02 -2.639513e-01 -5.127855e-03 2.821647e-02 8.123981e-02 3.609405e-02 -4.395775e-03 1.704048e-02 1.476353e-02 6.128493e-03 -2.554179e-03 -1.295288e-02 1.259959e-03 -1.678571e-02
<VARIANCE> 39
 1.728925e+00 9.993778e-01 6.426135e-01 6.990396e-01 5.215527e-01 4.959078e-01 5.758088e-01 2.579808e-01 2.874961e-01 3.225140e-01 2.099497e-01 2.340562e-01 9.259236e-03 3.943681e-01 1.124972e-01 5.883788e-02 6.483262e-02 3.633328e-02 3.950363e-02 2.804143e-02 2.174408e-02 2.266275e-02 1.767156e-02 1.349633e-02 1.334696e-02 1.289888e-03 4.101752e-02 1.214850e-02 5.862309e-03 5.892360e-03 3.525711e-03 3.748271e-03 5.423380e-03 2.675317e-03 2.379530e-03 2.415578e-03 1.593551e-03 1.816196e-03 2.101084e-04
<GCONST> -6.117947e+01
<MIXTURE> 2 4.171853e-01
<MEAN> 39
 3.038281e+00 -8.015594e-01 -9.411598e-01 -1.376483e+00 1.550700e-01 -6.037286e-02 -8.350894e-01 -3.249505e-01 -1.503645e-01 5.401224e-02 -5.897793e-01 -4.516725e-01 7.864218e-01 9.856744e-01 -1.578666e-01 -4.548846e-02 -3.693482e-01 2.568020e-03 3.877340e-02 -9.794616e-02 -6.058086e-02 -9.166806e-02 -1.948894e-02 -1.294656e-01 -8.369644e-02 6.792815e-02 -2.121495e-01 2.223638e-02 8.621247e-03 7.048113e-02 -3.703839e-03 2.243130e-02 5.459949e-02 1.287301e-02 9.072925e-03 4.737790e-03 4.176068e-02 3.281676e-02 -1.551628e-02
<VARIANCE> 39
 2.369295e+00 1.369024e+00 6.673988e-01 1.017497e+00 5.556974e-01 5.979248e-01 4.507133e-01 3.307892e-01 2.887065e-01 3.493472e-01 2.473575e-01 2.112507e-01 2.613327e-02 3.480183e-01 1.370126e-01 9.745809e-02 5.766904e-02 4.738661e-02 5.075226e-02 2.134925e-02 2.277740e-02 1.981256e-02 2.562350e-02 2.417098e-02 1.446121e-02 1.573374e-03 3.991122e-02 1.410838e-02 5.380895e-03 8.459345e-03 5.445707e-03 6.513325e-03 4.403925e-03 4.049252e-03 2.914449e-03 3.449786e-03 2.041594e-03 2.115657e-03 2.452808e-04
<GCONST> -5.414478e+01
<STATE> 3
<NUMMIXES> 2
<MIXTURE> 1 4.673956e-01
<MEAN> 39
 4.232019e+00 -1.162816e+00 -1.332875e+00 -2.234007e+00 -2.378446e-01 6.928303e-01 -3.912902e-01 -3.018782e-01 -7.079885e-02 1.989041e-02 6.781523e-04 -2.306252e-01 8.795702e-01 1.684617e-01 -1.256272e-01 -7.213750e-02 -1.376559e-01 1.505178e-03 9.678721e-02 6.470416e-02 -2.640765e-03 -3.320587e-03 -2.618115e-02 -1.309350e-03 4.091380e-03 1.297390e-02 -2.105027e-01 8.820056e-02 7.112276e-02 1.400799e-01 2.328300e-02 -3.800242e-02 1.170878e-02 -8.410447e-03 -9.320919e-03 -2.176615e-03 -4.109984e-03 7.070864e-03 -1.813947e-02
<VARIANCE> 39
 1.360166e+00 1.198129e+00 7.107340e-01 9.175174e-01 7.060047e-01 6.768255e-01 5.492095e-01 3.069447e-01 3.184417e-01 3.752499e-01 4.597589e-01 2.866466e-01 6.202649e-03 9.218511e-02 5.662408e-02 5.180830e-02 6.363943e-02 2.883280e-02 3.536983e-02 2.786332e-02 1.582493e-02 1.605040e-02 1.493260e-02 1.071030e-02 1.204953e-02 4.460600e-04 3.199073e-02 1.204405e-02 6.657833e-03 6.150511e-03 5.797175e-03 5.122020e-03 4.455132e-03 3.414072e-03 3.017922e-03 2.990027e-03 2.815591e-03 2.362397e-03 1.487497e-04
<GCONST> -6.243832e+01
<MIXTURE> 2 5.325921e-01
<MEAN> 39
 4.275412e+00 -7.357706e-01 -1.479900e+00 -2.823661e+00 -2.890487e-01 9.044510e-01 2.980850e-01 -3.479125e-01 -3.062464e-02 -3.137522e-01 1.319970e-01 -5.637239e-02 8.651650e-01 -2.425660e-02 -7.252227e-02 -3.113556e-02 5.886169e-03 3.138757e-02 -2.018753e-03 2.236522e-02 -6.836725e-03 -1.743237e-03 -2.994802e-03 1.091339e-02 -1.259762e-02 3.622448e-05 -1.178414e-02 1.057349e-02 2.556261e-02 6.422339e-02 6.192387e-03 -2.980950e-02 -3.336626e-02 4.594491e-04 -9.813936e-03 1.710437e-02 -2.161579e-03 -7.285846e-03 -3.528701e-03
<VARIANCE> 39
 1.657630e+00 1.008530e+00 5.643954e-01 6.799604e-01 8.540779e-01 5.434874e-01 4.707337e-01 3.004816e-01 3.159719e-01 3.062563e-01 3.003341e-01 2.343699e-01 1.647826e-02 2.385704e-02 2.477229e-02 1.339070e-02 2.581079e-02 1.232955e-02 1.309469e-02 1.377217e-02 7.044526e-03 7.661115e-03 8.671109e-03 5.964396e-03 6.287349e-03 1.396479e-04 4.309701e-03 3.546225e-03 2.506594e-03 3.325806e-03 2.027869e-03 1.765579e-03 1.916399e-03 1.261454e-03 1.381690e-03 1.160598e-03 9.284503e-04 9.478905e-04 1.934633e-05
<GCONST> -8.904350e+01
<STATE> 4
<NUMMIXES> 2
<MIXTURE> 1 3.664662e-01
<MEAN> 39
 4.476856e+00 -9.838782e-01 -1.289612e+00 -1.869121e+00 -2.504416e-01 6.328638e-01 -2.125628e-01 -4.754201e-01 -1.929425e-01 8.537506e-04 -6.851263e-02 -1.973155e-01 8.394119e-01 -3.375085e-01 3.098342e-01 1.658019e-01 2.759185e-01 9.694009e-02 1.682244e-02 4.620837e-02 -1.961076e-02 -1.789272e-02 -1.731698e-02 -3.089800e-03 3.418606e-02 -4.810045e-02 -3.029331e-01 8.035789e-02 7.074641e-02 1.179177e-01 3.689665e-02 -1.631344e-02 4.015264e-03 2.055787e-02 1.437989e-02 3.064376e-03 1.293851e-02 6.839599e-03 -2.432566e-02
<VARIANCE> 39
 1.490179e+00 1.360690e+00 8.378479e-01 1.104245e+00 6.111902e-01 6.909459e-01 6.324245e-01 3.132341e-01 3.338991e-01 3.570719e-01 4.892997e-01 2.622795e-01 8.832082e-03 2.503524e-01 9.650785e-02 5.230273e-02 5.320007e-02 4.597979e-02 4.143587e-02 2.949419e-02 2.074718e-02 1.985900e-02 1.671926e-02 1.521366e-02 1.256422e-02 1.462745e-03 3.090516e-02 1.843476e-02 6.748748e-03 7.259270e-03 5.093813e-03 5.070371e-03 4.403295e-03 3.290719e-03 3.251108e-03 2.600769e-03 3.105644e-03 2.121845e-03 1.231712e-04
<GCONST> -5.716660e+01
<MIXTURE> 2 6.335309e-01
<MEAN> 39
 3.961104e+00 -1.505723e+00 -1.102837e+00 -1.759869e+00 -2.306912e-02 4.150851e-01 -5.059254e-01 -2.438126e-01 -7.320122e-02 5.570334e-02 -4.567273e-02 -4.184999e-01 8.491342e-01 -1.140316e-02 3.168580e-02 2.514644e-01 3.246162e-01 -4.442773e-02 -1.910085e-01 -8.264629e-02 -3.704153e-03 -3.198841e-02 3.748133e-02 -4.709403e-02 -1.921276e-02 -1.158805e-02 -1.361647e-02 1.016508e-01 6.271185e-02 6.311168e-02 -2.637315e-02 -3.204011e-02 1.477054e-02 -1.388878e-02 -1.327791e-02 -5.623754e-03 -6.197920e-03 2.011456e-02 -6.209550e-03
<VARIANCE> 39
 1.888406e+00 1.184930e+00 9.489952e-01 1.031147e+00 6.664878e-01 7.206527e-01 5.189461e-01 3.434101e-01 3.800637e-01 4.349142e-01 5.551195e-01 2.757967e-01 1.867110e-02 3.800740e-02 6.835124e-02 4.207988e-02 3.944973e-02 3.194362e-02 2.078605e-02 2.516436e-02 2.237704e-02 2.064212e-02 1.451136e-02 1.223482e-02 1.526576e-02 1.796390e-04 7.240755e-03 6.876177e-03 4.917042e-03 5.899548e-03 4.017062e-03 3.286222e-03 3.268179e-03 3.216590e-03 2.291391e-03 2.604958e-03 1.977395e-03 1.747592e-03 4.690049e-05
<GCONST> -6.775707e+01
<TRANSP> 5
 0.000000e+00 1.000000e+00 0.000000e+00 0.000000e+00 0.000000e+00
 0.000000e+00 5.148166e-01 4.851834e-01 0.000000e+00 0.000000e+00
 0.000000e+00 0.000000e+00 7.349881e-01 2.650120e-01 0.000000e+00
 0.000000e+00 0.000000e+00 0.000000e+00 5.737941e-01 4.262059e-01
 0.000000e+00 0.000000e+00 0.000000e+00 0.000000e+00 0.000000e+00
<ENDHMM>
~h "S"
<BEGINHMM>
<NUMSTATES> 5
<STATE> 2
<NUMMIXES> 2
<MIXTURE> 1 4.311954e-01
<MEAN> 39
 -1.389463e+00 5.771481e-01 1.387956e+00 5.053892e-01 -2.008090e-01 -2.677968e-01 -3.244302e-01 -2.257479e-01 1.340862e-02 -5.290528e-01 -9.859675e-02 -1.918077e-01 6.696066e-01 -2.146139e+00 -8.380431e-02 3.291011e-02 9.432540e-02 2.056601e-01 1.887917e-01 1.668041e-01 1.222737e-01 1.995963e-01 -2.879645e-02 1.102042e-01 6.549035e-02 -3.169002e-02 -8.297500e-02 -1.206245e-01 -6.611156e-02 -6.321289e-02 -1.311519e-02 -4.209725e-03 1.301295e-02 1.762698e-02 1.232107e-02 3.937963e-02 9.581224e-03 1.443919e-02 6.135268e-03
<VARIANCE> 39
 9.701399e+00 1.268626e+00 8.194340e-01 6.508748e-01 5.177012e-01 4.676280e-01 3.982199e-01 3.036482e-01 3.359711e-01 2.830258e-01 1.864272e-01 2.255787e-01 9.450164e-03 1.796917e-01 1.126107e-01 7.737615e-02 4.423538e-02 3.195901e-02 3.379897e-02 2.914978e-02 2.909257e-02 2.085672e-02 1.649499e-02 2.667100e-02 1.233512e-02 3.422702e-04 8.062968e-02 8.385378e-03 5.087057e-03 4.064182e-03 3.872355e-03 3.356237e-03 3.272271e-03 2.573531e-03 2.285646e-03 2.268984e-03 1.597773e-03 1.890170e-03 6.058998e-05
<GCONST> -6.322320e+01
<MIXTURE> 2 5.687935e-01
<MEAN> 39
 -6.438626e+00 -6.159860e-01 9.896098e-01 3.665511e-01 1.458146e-01 1.553194e-01 2.165994e-01 1.468600e-01 5.619124e-01 -2.195799e-01 2.264231e-01 9.062439e-02 5.904815e-01 -1.507593e+00 -3.131200e-01 -8.757334e-02 -8.619286e-02 5.444778e-02 6.354029e-02 9.545045e-02 8.116636e-02 1.484325e-01 3.464968e-02 7.562298e-02 6.245326e-02 5.814868e-03 4.011310e-01 2.005983e-02 -2.550303e-02 -2.377721e-02 -4.636308e-02 -3.829754e-02 -3.307712e-02 -2.180576e-02 -3.692533e-02 1.263300e-02 -1.602201e-02 -7.780461e-03 6.111050e-03
<VARIANCE> 39
 4.675189e+00 1.531960e+00 1.115560e+00 8.264283e-01 5.196579e-01 3.981612e-01 3.377076e-01 3.338552e-01 2.751673e-01 2.050963e-01 2.163696e-01 1.583269e-01 2.489975e-02 4.665214e-01 7.076583e-02 4.717360e-02 2.766922e-02 2.543504e-02 2.787868e-02 1.752428e-02 1.823258e-02 1.505124e-02 1.127423e-02 1.359709e-02 8.753247e-03 1.425925e-03 5.907162e-02 1.355678e-02 8.246408e-03 5.703533e-03 4.321874e-03 3.847350e-03 3.203160e-03 2.437973e-03 2.215409e-03 1.776564e-03 1.905252e-03 1.427813e-03 1.095166e-04
<GCONST> -6.399663e+01
<STATE> 3
<NUMMIXES> 2
<MIXTURE> 1 4.809737e-01
<MEAN> 39
 -8.385144e+00 -2.997814e-01 5.217106e-01 -3.529796e-01 4.795633e-02 3.981288e-01 1.086018e-01 5.540918e-01 7.235009e-01 -2.243540e-01 6.915244e-01 2.651767e-01 6.896927e-01 4.665634e-03 -1.522025e-02 9.052149e-03 2.957150e-02 1.367393e-02 3.109181e-02 1.000625e-02 1.185983e-02 3.901994e-02 2.570541e-02 1.511699e-02 2.450946e-02 -1.516449e-02 3.999986e-01 4.368790e-02 1.209120e-02 3.951710e-02 -9.082926e-04 -1.509381e-02 -1.401839e-02 -3.232206e-02 -3.961938e-02 6.146061e-04 -3.537098e-02 -2.230680e-02 -1.588789e-02
<VARIANCE> 39
 1.649225e+00 1.065380e+00 9.408869e-01 3.652408e-01 4.248286e-01 3.047219e-01 2.443524e-01 2.833343e-01 2.683336e-01 1.839198e-01 1.895290e-01 1.561450e-01 9.950153e-03 3.949598e-01 6.245987e-02 3.827300e-02 2.155996e-02 1.828955e-02 1.783331e-02 1.122809e-02 1.261223e-02 1.228778e-02 9.260564e-03 8.784973e-03 6.490997e-03 2.076452e-03 4.734576e-02 1.073079e-02 7.068024e-03 2.975602e-03 3.655852e-03 3.068978e-03 2.524733e-03 2.270543e-03 1.992058e-03 1.661319e-03 1.625375e-03 1.109255e-03 2.269888e-04
<GCONST> -7.346109e+01
<MIXTURE> 2 5.190111e-01
<MEAN> 39
 -7.958531e+00 -1.957069e+00 7.750935e-01 3.065045e-01 5.316088e-02 -2.250888e-01 2.643859e-01 -1.722887e-02 7.309513e-01 -5.313409e-02 7.084257e-02 1.844843e-01 6.126992e-01 -3.448236e-02 -6.792793e-02 -7.159278e-02 -3.631253e-02 -2.509850e-02 -1.515402e-02 -1.827608e-02 -9.588425e-03 -1.432211e-03 8.424628e-03 5.619787e-03 -2.758590e-03 -7.243915e-03 3.919857e-01 1.044893e-01 5.552677e-03 1.671400e-02 -6.342267e-04 1.108346e-02 -1.690025e-02 -4.915340e-03 -2.708851e-02 -4.429243e-03 1.015211e-03 -6.688163e-03 -9.876627e-03
<VARIANCE> 39
 2.894699e+00 1.143914e+00 8.656432e-01 6.026188e-01 5.669514e-01 4.492167e-01 3.194768e-01 2.251064e-01 1.881643e-01 1.533684e-01 1.173858e-01 1.079155e-01 1.837377e-02 3.882610e-01 5.375493e-02 2.980788e-02 2.247315e-02 1.464935e-02 1.347611e-02 1.029309e-02 7.693129e-03 6.955289e-03 5.879143e-03 4.687429e-03 4.620964e-03 8.411380e-04 5.715450e-02 9.023631e-03 5.230343e-03 3.282771e-03 3.072889e-03 2.996522e-03 1.956746e-03 1.452795e-03 1.418828e-03 9.961943e-04 8.319204e-04 8.144073e-04 1.741480e-04
<GCONST> -8.000250e+01
<STATE> 4
<NUMMIXES> 2
<MIXTURE> 1 5.580968e-01
<MEAN> 39
 -4.252525e+00 -3.388090e-01 4.025444e-01 6.023806e-01 2.976606e-01 3.313176e-01 2.678450e-01 1.709852e-01 4.854035e-01 5.092094e-02 2.559601e-01 2.135373e-01 2.499455e-01 6.210931e-01 2.226535e-01 -4.140553e-02 7.140082e-02 7.170081e-02 7.353385e-02 4.266588e-02 -1.667829e-03 -3.332303e-02 3.014101e-02 2.383889e-03 1.418747e-03 -6.991491e-02 1.001386e-01 1.517657e-02 -2.626589e-02 -2.229952e-02 2.762862e-03 -1.624701e-03 5.864826e-03 5.689851e-03 -7.612649e-03 -1.028444e-03 -2.957728e-03 -9.219054e-04 -3.253799e-03
<VARIANCE> 39
 1.356793e+01 2.215074e+00 9.808731e-01 5.627515e-01 4.622934e-01 3.744469e-01 3.132571e-01 2.635067e-01 2.364252e-01 1.674457e-01 1.867276e-01 1.123581e-01 9.672388e-02 3.796416e-01 8.240540e-02 2.942323e-02 2.133296e-02 1.751255e-02 1.550301e-02 1.046959e-02 8.448748e-03 7.433834e-03 6.886405e-03 4.988660e-03 4.601739e-03 3.888529e-03 4.676717e-02 1.052875e-02 5.553529e-03 3.134857e-03 2.658472e-03 2.348051e-03 2.242473e-03 1.506044e-03 1.257137e-03 1.022182e-03 9.720589e-04 8.083167e-04 2.793973e-04
<GCONST> -7.264742e+01
<MIXTURE> 2 4.418896e-01
<MEAN> 39
 -5.101208e+00 -8.802357e-01 3.863989e-01 2.443770e-02 -2.212981e-02 2.779365e-02 4.871747e-02 7.252636e-02 5.409992e-01 -1.259993e-01 2.747122e-01 7.533397e-02 5.252005e-01 1.927922e+00 1.894878e-01 -3.848300e-02 7.604574e-04 -9.693616e-02 -6.250797e-02 -1.237301e-01 -1.246741e-01 -1.902035e-01 1.869933e-03 -1.036942e-01 -7.575486e-02 3.889485e-03 2.988856e-01 3.449827e-02 2.072188e-02 -1.812856e-02 -2.656065e-02 -1.368801e-02 -2.577446e-02 -2.391662e-02 -3.893008e-02 4.806360e-03 -2.441821e-02 -1.163763e-02 1.899549e-02
<VARIANCE> 39
 8.274795e+00 1.800552e+00 1.164490e+00 5.777470e-01 5.573184e-01 5.535046e-01 3.911564e-01 4.757598e-01 3.632228e-01 2.570679e-01 2.938586e-01 1.727206e-01 2.266826e-02 3.800164e-01 1.191344e-01 6.932733e-02 3.909480e-02 3.525448e-02 4.375791e-02 2.665699e-02 2.537880e-02 1.943403e-02 1.654781e-02 2.490201e-02 1.040664e-02 1.609524e-03 8.310883e-02 1.343316e-02 8.164733e-03 6.241892e-03 5.123529e-03 6.239383e-03 3.823631e-03 3.354646e-03 3.366926e-03 2.520031e-03 2.951691e-03 1.621450e-03 1.807154e-04
<GCONST> -5.436719e+01
<TRANSP> 5
 0.000000e+00 1.000000e+00 0.000000e+00 0.000000e+00 0.000000e+00
 0.000000e+00 7.064011e-01 2.935990e-01 0.000000e+00 0.000000e+00
 0.000000e+00 0.000000e+00 7.733094e-01 2.266906e-01 0.000000e+00
 0.000000e+00 0.000000e+00 0.000000e+00 6.748285e-01 3.251716e-01
 0.000000e+00 0.000000e+00 0.000000e+00 0.000000e+00 0.000000e+00
<ENDHMM>
~h "U"
<BEGINHMM>
<NUMSTATES> 5
<STATE> 2
<NUMMIXES> 2
<MIXTURE> 1 7.131894e-01
<MEAN> 39
 4.568837e+00 3.415542e-01 -7.180364e-01 -1.402585e+00 -7.031204e-01 2.955467e-01 -5.995678e-01 -5.555812e-01 -4.780353e-01 3.796980e-02 1.580451e-01 1.114774e-02 7.715440e-01 7.564722e-01 -1.651099e-02 -1.050945e-01 -3.326291e-01 -9.638487e-02 8.247340e-02 -4.199856e-02 -4.912175e-02 -6.948373e-02 1.994687e-02 5.703751e-02 1.610032e-02 6.488654e-02 -2.088979e-01 -8.191749e-03 3.631065e-02 7.538661e-02 3.530936e-02 -4.417519e-03 3.172595e-02 1.843314e-02 1.502002e-02 3.339008e-03 -5.323306e-03 -1.707569e-03 -1.612808e-02
<VARIANCE> 39
 1.566072e+00 1.713789e+00 6.372113e-01 1.241427e+00 5.406089e-01 4.484440e-01 5.744394e-01 3.362406e-01 3.157969e-01 3.427031e-01 2.761978e-01 2.367938e-01 1.481886e-02 3.871458e-01 9.105023e-02 5.682934e-02 7.735176e-02 4.799620e-02 3.188143e-02 3.152761e-02 2.264128e-02 2.250552e-02 1.961734e-02 2.017959e-02 1.353872e-02 3.216845e-03 4.363041e-02 1.614016e-02 7.028966e-03 8.846574e-03 4.470823e-03 3.966893e-03 4.407709e-03 3.474926e-03 3.569779e-03 2.710019e-03 2.164484e-03 1.761467e-03 2.621544e-04
<GCONST> -5.520367e+01
<MIXTURE> 2 2.868100e-01
<MEAN> 39
 3.414001e-01 2.697754e-01 -1.835847e-01 -1.592744e-01 1.586699e-01 -3.449934e-02 -4.109124e-01 -2.982669e-02 3.979728e-02 7.865974e-02 -2.522383e-02 -2.426765e-02 4.112606e-01 1.084396e+00 -7.011447e-03 -2.434151e-02 -1.923677e-01 -9.230776e-02 -7.752567e-03 -1.469963e-01 -9.648009e-02 -1.078959e-01 2.589159e-02 -2.006329e-02 -5.916075e-02 6.771934e-02 5.010221e-02 1.247457e-02 -8.950490e-04 -1.272435e-02 -2.036176e-02 2.028900e-02 1.962887e-02 -1.629346e-02 -1.961551e-02 2.430771e-03 2.918812e-03 2.998286e-03 9.594856e-03
<VARIANCE> 39
 7.880861e+00 2.201579e+00 1.140258e+00 1.108142e+00 7.830099e-01 9.281734e-01 8.389682e-01 3.308452e-01 2.979344e-01 2.541643e-01 2.671435e-01 2.299024e-01 1.208593e-01 8.134196e-01 1.341065e-01 9.693076e-02 9.012096e-02 5.955907e-02 4.962745e-02 4.423244e-02 2.821183e-02 2.595044e-02 2.048563e-02 2.381713e-02 1.646731e-02 5.062446e-03 6.364642e-02 1.939225e-02 9.385710e-03 1.124454e-02 5.981971e-03 7.187675e-03 7.218251e-03 3.065780e-03 3.059053e-03 2.431116e-03 2.541359e-03 2.242757e-03 5.225547e-04
<GCONST> -4.252312e+01
<STATE> 3
<NUMMIXES> 2
<MIXTURE> 1 6.192614e-01
<MEAN> 39
 5.192111e+00 2.960279e-01 -9.148206e-01 -2.169928e+00 -9.034401e-01 6.880246e-01 -1.965662e-01 -4.987804e-01 -4.463075e-01 3.753585e-02 3.505459e-01 2.091360e-01 8.399945e-01 -2.355695e-03 -1.080243e-01 -3.010933e-02 1.572646e-03 3.922111e-02 2.769345e-04 1.707825e-03 7.943337e-03 2.263398e-02 2.911809e-02 2.238861e-02 -2.358758e-02 4.778326e-03 -8.393906e-02 4.615115e-03 3.655019e-02 1.036413e-01 3.641879e-02 -4.001002e-02 -1.373716e-02 -6.493195e-04 1.110893e-04 7.341713e-03 -1.603660e-02 -2.556294e-02 -9.002338e-03
<VARIANCE> 39
 1.299898e+00 1.218751e+00 6.684992e-01 8.691213e-01 7.003623e-01 3.679812e-01 3.649043e-01 3.202952e-01 2.468574e-01 3.245096e-01 2.585228e-01 1.847659e-01 7.823316e-03 4.019327e-02 5.011031e-02 2.247103e-02 6.393600e-02 2.023714e-02 1.581790e-02 1.833160e-02 1.443846e-02 1.328720e-02 1.283045e-02 1.019130e-02 1.026422e-02 4.168360e-04 1.356551e-02 7.922094e-03 4.260280e-03 5.492194e-03 3.900093e-03 2.530619e-03 2.053913e-03 2.385780e-03 2.457981e-03 1.828723e-03 1.587396e-03 1.433703e-03 8.957090e-05
<GCONST> -7.516614e+01
<MIXTURE> 2 3.807325e-01
<MEAN> 39
 4.249200e+00 -4.003997e-01 -6.714009e-01 -1.797919e+00 -1.222386e-01 2.067377e-01 -1.043884e+00 -2.566961e-01 -5.306176e-01 3.053254e-01 3.638519e-02 -1.891383e-01 7.948569e-01 4.040646e-01 -2.863475e-02 3.321953e-02 -5.680503e-02 -1.509254e-02 1.750961e-02 -2.998391e-02 -3.948396e-02 -7.887780e-02 1.899250e-02 -2.790789e-02 -3.955886e-02 3.313914e-02 -2.370698e-01 6.831519e-02 6.361233e-02 1.530266e-01 -1.939567e-02 -3.409393e-02 6.885600e-02 -8.644887e-03 2.515845e-02 -2.321382e-02 -2.164097e-02 7.422470e-03 -1.856569e-02
<VARIANCE> 39
 2.168102e+00 1.660245e+00 7.964002e-01 1.854672e+00 6.074291e-01 5.919951e-01 5.498697e-01 3.639291e-01 4.398657e-01 3.710765e-01 4.142339e-01 2.857534e-01 2.930099e-02 2.430784e-01 9.599077e-02 5.614780e-02 8.924626e-02 3.863678e-02 4.150492e-02 3.684716e-02 2.236218e-02 2.436959e-02 1.801394e-02 2.420531e-02 1.323941e-02 1.877993e-03 5.023441e-02 1.871600e-02 1.094672e-02 1.288090e-02 8.963994e-03 6.583372e-03 6.122946e-03 4.720520e-03 5.198311e-03 3.735793e-03 3.920162e-03 2.507005e-03 3.666553e-04
<GCONST> -4.772151e+01
<STATE> 4
<NUMMIXES> 2
<MIXTURE> 1 3.399977e-01
<MEAN> 39
 4.201610e+00 1.570064e-01 -5.679850e-01 -1.255147e+00 -4.015388e-01 2.041067e-01 -7.868936e-01 -6.508809e-01 -4.647377e-01 1.273780e-01 1.331332e-01 -9.100804e-02 7.923244e-01 -4.218735e-01 2.264411e-01 1.210458e-01 2.636395e-01 1.262470e-01 -1.010610e-01 5.717948e-02 2.014959e-02 3.218606e-02 -8.953759e-03 -1.908537e-02 -1.841434e-02 -2.878401e-02 -3.580350e-01 6.185500e-02 2.697918e-02 1.007172e-01 3.638153e-02 -6.146866e-03 5.386877e-02 3.933873e-02 2.668671e-02 -1.685602e-02 -6.681418e-03 8.286539e-03 -2.330968e-02
<VARIANCE> 39
 3.152847e+00 1.331427e+00 8.431054e-01 1.551662e+00 7.958963e-01 7.517972e-01 7.593027e-01 3.554318e-01 3.864849e-01 4.049768e-01 4.580221e-01 3.034462e-01 3.231670e-02 6.199710e-01 1.129550e-01 5.094425e-02 7.323717e-02 6.360626e-02 3.431884e-02 3.534762e-02 2.347044e-02 3.130056e-02 2.087375e-02 1.633548e-02 1.145465e-02 2.141865e-03 4.268857e-02 1.787543e-02 7.545507e-03 1.350776e-02 7.517227e-03 6.732091e-03 6.330202e-03 3.325095e-03 3.699942e-03 3.568687e-03 4.149905e-03 2.775394e-03 2.769141e-04
<GCONST> -4.706585e+01
<MIXTURE> 2 6.600006e-01
<MEAN> 39
 4.571365e+00 -7.902982e-01 -6.224162e-01 -1.198384e+00 -3.325004e-01 1.561012e-01 -8.836918e-01 -4.058618e-01 -4.016952e-01 2.763387e-01 2.059597e-02 -3.442460e-01 8.312480e-01 -1.494589e-02 5.937427e-02 1.990451e-01 3.313184e-01 -5.111130e-02 -1.671274e-01 2.894709e-02 -5.767693e-02 -1.182805e-03 6.987346e-03 -1.000696e-01 -5.746944e-02 -2.931474e-03 -3.879371e-02 1.146192e-01 5.741278e-02 5.049695e-02 -2.885601e-02 -2.716254e-02 3.844202e-02 -1.198809e-02 -5.649270e-03 -1.681867e-02 -1.748691e-02 1.903274e-02 -7.770635e-03
<VARIANCE> 39
 1.391765e+00 1.366703e+00 8.511391e-01 1.354816e+00 6.144858e-01 5.553074e-01 5.458924e-01 3.705811e-01 4.078799e-01 3.279620e-01 5.007538e-01 2.334113e-01 8.187138e-03 4.809320e-02 9.900957e-02 3.555684e-02 5.944594e-02 4.024798e-02 2.815752e-02 3.343018e-02 2.796770e-02 2.543152e-02 1.725133e-02 1.618075e-02 1.411538e-02 4.474257e-04 8.933690e-03 9.694549e-03 6.409151e-03 8.535220e-03 4.294937e-03 4.318332e-03 3.596478e-03 3.457621e-03 3.103743e-03 2.869189e-03 2.805405e-03 1.800259e-03 6.057903e-05
<GCONST> -6.316049e+01
<TRANSP> 5
 0.000000e+00 1.000000e+00 0.000000e+00 0.000000e+00 0.000000e+00
 0.000000e+00 5.345761e-01 4.654239e-01 0.000000e+00 0.000000e+00
 0.000000e+00 0.000000e+00 6.283371e-01 3.716629e-01 0.000000e+00
 0.000000e+00 0.000000e+00 0.000000e+00 4.887835e-01 5.112165e-01
 0.000000e+00 0.000000e+00 0.000000e+00 0.000000e+00 0.000000e+00
<ENDHMM>
~h "Y"
<BEGINHMM>
<NUMSTATES> 5
<STATE> 2
<NUMMIXES> 2
<MIXTURE> 1 5.067449e-01
<MEAN> 39
 4.104668e+00 -3.243955e-01 -9.805042e-02 -2.350308e-01 -4.519758e-01 -1.087003e-01 -1.001137e+00 -7.361532e-01 -1.350227e-01 2.241049e-01 1.788902e-01 -3.047801e-02 8.107927e-01 1.457843e-01 -3.431619e-01 -4.900195e-02 -1.349190e-01 -1.092602e-01 -7.385769e-02 -1.607859e-01 2.200642e-02 1.071567e-01 4.522191e-02 8.227068e-03 -1.951301e-02 3.834592e-02 -1.231564e-01 3.910751e-02 2.583752e-02 3.355936e-02 1.388197e-02 -1.214988e-02 2.006965e-02 3.591527e-02 7.366239e-04 -9.190963e-03 -1.510458e-02 -4.183352e-03 -8.719320e-03
<VARIANCE> 39
 1.205397e+00 7.067931e-01 6.558797e-01 1.474484e+00 4.093616e-01 5.381104e-01 3.846141e-01 3.389509e-01 2.694263e-01 2.333526e-01 2.962883e-01 1.738712e-01 7.651708e-03 2.112270e-01 5.212668e-02 3.489062e-02 5.086012e-02 3.510539e-02 3.138880e-02 2.189383e-02 2.146609e-02 2.539656e-02 1.666086e-02 1.841343e-02 1.333402e-02 8.191225e-04 1.946210e-02 7.822795e-03 4.485289e-03 4.136825e-03 3.435608e-03 2.577898e-03 2.561083e-03 2.359352e-03 1.917888e-03 1.474951e-03 1.357410e-03 1.002953e-03 1.158001e-04
<GCONST> -6.985807e+01
<MIXTURE> 2 4.932535e-01
<MEAN> 39
 3.188633e+00 -7.634086e-01 9.521933e-01 2.457592e-02 -8.430603e-01 -1.090448e+00 -1.359049e+00 -5.401910e-02 -4.105283e-01 -1.335832e-01 -2.995886e-01 -1.634774e-01 8.375521e-01 7.083188e-01 -1.120188e-01 1.154440e-01 -1.092714e-01 -1.110898e-01 -1.455518e-01 -1.607354e-01 2.008858e-02 -6.939844e-02 2.756565e-02 -4.161496e-02 -2.180799e-02 5.810410e-02 -1.910649e-01 3.383729e-02 -5.289219e-02 1.104153e-02 4.258819e-02 5.121879e-02 7.332237e-02 3.678977e-03 2.256002e-02 1.618994e-02 1.401738e-02 7.761118e-03 -2.007945e-02
<VARIANCE> 39
 2.556872e+00 1.234846e+00 7.575749e-01 8.324556e-01 5.006460e-01 5.394030e-01 3.829092e-01 2.677945e-01 3.505927e-01 3.106573e-01 2.725985e-01 2.152161e-01 1.738114e-02 5.284467e-01 1.117923e-01 7.077041e-02 3.827770e-02 3.665394e-02 4.629435e-02 3.512673e-02 2.951101e-02 2.661812e-02 1.947613e-02 2.198648e-02 1.901027e-02 1.685989e-03 4.116957e-02 1.516569e-02 6.274203e-03 4.659461e-03 5.238059e-03 4.748330e-03 3.217327e-03 2.894405e-03 2.681934e-03 2.597045e-03 2.024636e-03 1.868927e-03 2.557190e-04
<GCONST> -5.668296e+01
<STATE> 3
<NUMMIXES> 2
<MIXTURE> 1 3.737505e-01
<MEAN> 39
 3.979473e+00 -1.340814e+00 3.391746e-01 -7.759974e-01 -6.303431e-01 -9.142853e-01 -1.234614e+00 -2.036524e-01 -2.205959e-01 3.700775e-01 -2.276842e-01 -1.524057e-01 8.970362e-01 1.203784e-02 -6.749886e-02 2.633203e-02 -2.348360e-02 3.318507e-02 -1.000871e-01 -2.349182e-02 7.511528e-02 3.684374e-03 1.658160e-02 -1.924792e-02 -1.348275e-02 6.065383e-03 -1.855281e-01 1.631951e-01 -6.826109e-03 7.341614e-02 3.708610e-02 4.686609e-02 5.046264e-02 -4.448384e-03 -3.377225e-03 -3.162712e-02 9.034231e-03 3.472754e-03 -2.181373e-02
<VARIANCE> 39
 1.567723e+00 1.096077e+00 1.053993e+00 1.056960e+00 5.256928e-01 8.527039e-01 4.403881e-01 4.341973e-01 4.436455e-01 3.780872e-01 4.149956e-01 2.028464e-01 7.460766e-03 1.576146e-01 6.760877e-02 4.817286e-02 5.926142e-02 2.729042e-02 3.440725e-02 2.343275e-02 2.094333e-02 1.467388e-02 1.852735e-02 1.062669e-02 1.371996e-02 5.427815e-04 3.611311e-02 1.575022e-02 7.288202e-03 5.962980e-03 5.224296e-03 5.729924e-03 5.194866e-03 4.969775e-03 4.263545e-03 3.203124e-03 2.753193e-03 2.318559e-03 1.883454e-04
<GCONST> -5.907832e+01
<MIXTURE> 2 6.262494e-01
<MEAN> 39
 3.501495e+00 -8.218296e-01 -1.044580e-01 -2.130060e-01 -8.226961e-01 -2.214228e-01 -1.217623e+00 -3.712313e-01 7.763243e-02 2.725898e-01 6.457876e-02 -6.356128e-02 8.624426e-01 -5.268185e-02 -1.031651e-01 -5.194429e-02 -1.121229e-01 -4.622751e-02 1.962957e-02 -3.465896e-02 4.115124e-02 3.147622e-02 2.605746e-03 -1.669127e-02 1.402557e-02 6.716724e-03 7.405587e-03 4.038612e-02 4.116888e-02 2.683108e-02 1.336164e-02 -7.456430e-03 2.986119e-02 -1.083751e-02 -2.302947e-02 -9.320257e-03 -1.157953e-02 -2.097750e-03 -4.492956e-03
<VARIANCE> 39
 1.230070e+00 6.856654e-01 7.469378e-01 1.156871e+00 2.721294e-01 8.662871e-01 3.548160e-01 3.305624e-01 3.993663e-01 3.044995e-01 2.191295e-01 1.858024e-01 9.094729e-03 3.038040e-02 2.716240e-02 3.546431e-02 2.769491e-02 2.049173e-02 1.916540e-02 1.571509e-02 1.068122e-02 1.473152e-02 9.848206e-03 9.013636e-03 6.471563e-03 1.392425e-04 3.911443e-03 4.479541e-03 3.844139e-03 3.354294e-03 1.972296e-03 2.126689e-03 2.683442e-03 1.480255e-03 1.936400e-03 1.278960e-03 8.455430e-04 8.538782e-04 1.539731e-05
<GCONST> -8.542268e+01
<STATE> 4
<NUMMIXES> 2
<MIXTURE> 1 4.652172e-01
<MEAN> 39
 3.475701e+00 -5.977482e-01 4.594511e-01 -3.630513e-01 -3.536538e-01 -1.073928e+00 -1.347638e+00 -6.724992e-02 -3.077748e-01 1.746284e-01 -1.979717e-01 -2.635261e-01 8.207357e-01 -5.800931e-01 5.462987e-01 2.989018e-02 2.046307e-01 1.722073e-01 1.874768e-02 9.877758e-02 3.533934e-02 1.878610e-02 -4.210675e-02 2.692171e-02 1.861969e-02 -6.403612e-02 -2.861258e-01 1.085337e-01 -1.326749e-02 4.367029e-02 2.620040e-02 8.113847e-02 8.052113e-02 -1.804099e-02 2.088879e-02 -1.029982e-02 2.204089e-02 2.317625e-02 -2.644781e-02
<VARIANCE> 39
 2.569091e+00 1.341303e+00 8.856129e-01 9.711401e-01 6.020260e-01 6.289842e-01 4.538201e-01 4.004075e-01 4.220123e-01 4.421948e-01 5.479695e-01 2.023305e-01 1.775873e-02 3.567017e-01 9.078173e-02 5.319871e-02 5.878618e-02 3.322401e-02 3.877269e-02 3.075552e-02 2.764895e-02 1.764135e-02 1.891960e-02 1.724629e-02 1.212151e-02 1.901669e-03 2.783583e-02 2.081823e-02 7.979651e-03 7.470776e-03 4.640031e-03 5.225542e-03 4.171045e-03 4.071899e-03 3.405673e-03 3.769957e-03 4.098590e-03 2.559257e-03 2.034321e-04
<GCONST> -5.350667e+01
<MIXTURE> 2 5.347835e-01
<MEAN> 39
 3.392147e+00 -1.295352e+00 8.195223e-01 -4.472373e-02 -1.263070e+00 -7.881857e-01 -1.246135e+00 8.370121e-02 -2.082509e-01 -1.615429e-01 -2.848786e-01 -1.132861e-02 8.856893e-01 7.387614e-02 1.884598e-01 1.062640e-01 3.164766e-02 -4.839956e-02 2.935011e-02 1.283059e-01 -9.687497e-02 -5.962154e-02 -3.346301e-02 -6.234292e-02 -2.555393e-02 -1.220374e-02 5.252983e-02 1.355175e-01 -2.070636e-02 2.389140e-02 5.328476e-02 5.075227e-03 5.000378e-02 -5.930444e-02 -2.915996e-02 1.686428e-02 5.024396e-04 -2.032573e-02 -5.912527e-03
<VARIANCE> 39
 1.353516e+00 7.606316e-01 1.176485e+00 1.105391e+00 4.248279e-01 7.321539e-01 4.013946e-01 3.791701e-01 4.953581e-01 2.867183e-01 2.713455e-01 2.408809e-01 5.517908e-03 6.405455e-02 6.934604e-02 3.696769e-02 2.199114e-02 2.784413e-02 2.223701e-02 1.922145e-02 2.334585e-02 1.763603e-02 1.280090e-02 1.099845e-02 1.057799e-02 2.120382e-04 1.125759e-02 6.423112e-03 6.824455e-03 5.179952e-03 4.289426e-03 3.934828e-03 3.500130e-03 2.874328e-03 3.737530e-03 1.962709e-03 1.807648e-03 1.572330e-03 3.570378e-05
<GCONST> -7.161723e+01
<TRANSP> 5
 0.000000e+00 1.000000e+00 0.000000e+00 0.000000e+00 0.000000e+00
 0.000000e+00 4.476086e-01 5.523914e-01 0.000000e+00 0.000000e+00
 0.000000e+00 0.000000e+00 6.721801e-01 3.278200e-01 0.000000e+00
 0.000000e+00 0.000000e+00 0.000000e+00 5.536865e-01 4.463135e-01
 0.000000e+00 0.000000e+00 0.000000e+00 0.000000e+00 0.000000e+00
<ENDHMM>
~h "Z"
<BEGINHMM>
<NUMSTATES> 5
<STATE> 2
<NUMMIXES> 2
<MIXTURE> 1 3.952329e-01
<MEAN> 39
 -1.442976e+00 1.065562e+00 1.282155e+00 5.015982e-01 -8.106635e-02 -4.599575e-01 -7.057999e-01 -3.362840e-01 8.903506e-02 -4.846929e-01 -1.148036e-01 -2.328312e-01 7.499113e-01 -2.004213e+00 1.284720e-01 3.699360e-01 1.838153e-01 1.555546e-01 1.047398e-01 3.031488e-02 1.679757e-01 1.362475e-01 -7.926440e-02 5.798421e-02 4.380405e-02 -3.308629e-02 1.562198e-01 -6.889696e-02 -6.994438e-02 -6.040300e-02 -1.063382e-02 1.959506e-02 3.423046e-02 -3.600152e-03 -3.768405e-02 1.849394e-02 6.944348e-03 8.365516e-04 4.947686e-03
<VARIANCE> 39
 1.089252e+01 1.786798e+00 1.314149e+00 6.496496e-01 8.873980e-01 5.912908e-01 2.144759e-01 4.041756e-01 1.887137e-01 1.311025e-01 1.575312e-01 4.434064e-01 7.444377e-03 2.584074e-01 1.414042e-01 5.892956e-02 5.422578e-02 2.394236e-02 2.677792e-02 1.669475e-02 1.790342e-02 1.523946e-02 4.274857e-03 2.929034e-02 1.521157e-02 1.375211e-04 1.700670e-01 1.005252e-02 1.053659e-02 8.722021e-03 7.998661e-03 8.180114e-03 1.381911e-03 5.102765e-03 1.277965e-03 1.006308e-03 2.941028e-03 2.658980e-03 6.538927e-05
<GCONST> -6.275468e+01
<MIXTURE> 2 6.047672e-01
<MEAN> 39
 -7.011383e+00 3.011633e-01 1.419516e+00 3.747239e-01 1.056222e-01 2.822604e-01 -1.305154e-01 -1.504842e-03 2.814099e-01 -2.123957e-01 5.529407e-02 2.716697e-02 6.472670e-01 -6.591114e-02 3.741663e-02 4.037323e-02 -8.208817e-02 -1.268180e-01 -1.105678e-01 -5.309317e-02 -1.821378e-02 -3.707218e-02 -4.210819e-02 1.678647e-02 -1.359628e-02 4.101014e-02 7.874187e-01 -1.574637e-03 -4.008505e-02 -1.660217e-02 -5.549575e-02 -7.077722e-02 -2.869454e-02 -3.196634e-02 -3.395830e-02 1.043936e-02 -2.147522e-02 -1.237884e-02 7.323349e-03
<VARIANCE> 39
 5.129803e+00 2.103188e+00 1.232171e+00 7.001777e-01 6.918751e-01 1.757806e-01 1.980295e-01 2.668709e-01 1.721589e-01 1.566736e-01 2.112495e-01 2.511675e-01 1.079382e-02 1.521803e+00 1.275351e-01 6.709792e-02 2.640476e-02 2.107954e-02 1.843021e-02 1.214502e-02 1.139359e-02 7.633528e-03 1.186495e-02 7.540203e-03 5.628338e-03 2.322950e-03 5.980096e-02 4.046528e-02 2.087868e-02 8.406211e-03 4.967253e-03 2.785685e-03 2.273985e-03 2.211770e-03 1.127657e-03 1.881547e-03 2.684310e-03 2.066702e-03 2.544302e-04
<GCONST> -6.387502e+01
<STATE> 3
<NUMMIXES> 2
<MIXTURE> 1 4.725892e-01
<MEAN> 39
 -2.041709e+00 9.212283e-01 2.363422e+00 4.490747e-01 -8.170990e-01 -6.277969e-01 -4.970421e-01 -2.472382e-01 2.229104e-01 -3.682301e-01 1.029489e-02 1.822613e-01 7.287050e-01 2.217926e+00 -1.692061e-01 -1.746318e-01 -2.285307e-02 -1.972752e-01 -3.204828e-01 -9.996258e-02 2.437442e-02 -9.796374e-02 -2.056294e-02 9.396816e-02 -7.635409e-02 4.873289e-02 7.991733e-02 -1.141797e-01 -9.494401e-02 -2.355338e-02 2.792739e-02 1.237439e-02 1.893117e-02 2.438908e-02 -2.094451e-04 8.974424e-03 6.853909e-03 5.569095e-04 3.235798e-03
<VARIANCE> 39
 7.575323e+00 7.805716e-01 5.104369e-01 2.152974e-01 2.746646e-01 2.570365e-01 9.109220e-02 6.306670e-02 1.121820e-01 7.161860e-02 5.843258e-02 6.849405e-02 4.156155e-03 4.450400e-01 3.840135e-02 4.692424e-02 6.084613e-02 6.141523e-03 1.099941e-02 1.287184e-02 5.436906e-03 1.486751e-02 6.316956e-03 6.052414e-03 1.243164e-02 1.007838e-04 1.155455e-01 6.154465e-03 3.341419e-03 3.223575e-03 2.229059e-03 4.383574e-03 2.539675e-03 9.514758e-04 1.259068e-03 7.097740e-04 4.959559e-04 1.301819e-03 4.700511e-05
<GCONST> -9.076308e+01
<MIXTURE> 2 5.274107e-01
<MEAN> 39
 -1.992714e+00 1.872684e+00 1.174264e+00 -3.152400e-01 -6.824551e-01 -1.069167e+00 -7.308769e-01 -5.097647e-01 -5.381678e-01 -6.164727e-01 1.788359e-01 -5.781722e-01 8.368850e-01 1.811027e+00 -5.496086e-01 1.743599e-01 -2.585305e-01 -2.581691e-01 -2.917461e-01 -1.096467e-01 -4.281895e-02 -5.440813e-02 1.446482e-01 -1.657719e-01 1.365505e-01 4.213241e-02 1.501315e-01 -1.734600e-01 1.146014e-02 -3.272827e-02 5.554229e-02 4.973439e-02 -1.092886e-02 3.596575e-02 2.281083e-03 4.594731e-02 -2.878694e-02 3.524758e-02 -1.032573e-03
<VARIANCE> 39
 5.597695e+00 1.606797e+00 7.683587e-01 3.224398e-01 2.818650e-01 2.474366e-01 1.344958e-01 4.469398e-01 1.939059e-01 2.415043e-01 2.622138e-01 1.326594e-01 3.660995e-03 1.605145e-01 1.000040e-01 1.088867e-01 3.220903e-02 1.426866e-02 2.586220e-02 2.047669e-02 1.783882e-02 5.251437e-03 7.987753e-03 2.141026e-02 1.385637e-02 7.954563e-05 1.066122e-01 2.093311e-02 1.003808e-02 2.329093e-03 3.122943e-03 4.240108e-03 1.175332e-03 3.962043e-03 1.125877e-03 2.886007e-03 1.094908e-03 1.480154e-03 7.959158e-05
<GCONST> -7.395773e+01
<STATE> 4
<NUMMIXES> 2
<MIXTURE> 1 5.403180e-01
<MEAN> 39
 2.724113e+00 2.606580e-01 1.242602e+00 -5.405721e-02 -8.680193e-01 -9.736364e-01 -8.387903e-01 -3.449923e-01 -1.100006e-01 -1.316593e-01 -3.332771e-02 1.108376e-01 8.956989e-01 1.292168e+00 -2.853803e-01 -2.199041e-01 -8.694505e-02 -4.672546e-02 -8.499463e-03 -5.545666e-02 1.075256e-02 -3.316974e-02 6.673455e-02 -6.574014e-02 3.180064e-02 2.660686e-02 -2.792425e-01 3.557475e-02 -3.118924e-02 -9.150950e-03 5.939707e-02 7.190093e-02 4.281688e-02 2.610352e-03 1.586898e-03 4.387517e-03 9.098229e-03 -1.146365e-02 -7.611510e-03
<VARIANCE> 39
 1.802145e+00 3.153449e+00 1.316896e+00 9.199010e-01 2.782542e-01 4.249269e-01 2.566950e-01 2.801109e-01 1.904126e-01 2.045289e-01 2.389586e-01 1.467138e-01 4.488034e-03 4.784712e-01 1.898951e-01 6.911372e-02 7.289998e-02 7.323930e-03 4.272811e-02 2.277375e-02 1.891463e-02 1.581268e-02 1.402459e-02 2.184884e-02 2.082286e-02 6.618632e-04 6.043972e-02 1.571970e-02 1.030899e-02 1.231307e-02 6.222122e-03 6.524779e-03 3.178558e-03 2.709017e-03 7.065927e-04 4.147816e-03 1.488544e-03 2.113054e-03 7.441057e-05
<GCONST> -6.272272e+01
<MIXTURE> 2 4.596822e-01
<MEAN> 39
 2.241939e+00 3.438487e+00 1.063222e+00 -1.084785e+00 -9.188167e-01 1.237217e-01 -1.183173e+00 -7.978590e-01 -6.475276e-01 2.726710e-01 -6.754087e-01 -6.242778e-01 9.407922e-01 -2.243817e-01 2.081318e-02 2.001882e-02 -1.157012e-01 1.785953e-03 1.663593e-02 -4.265382e-02 3.217483e-02 -7.132720e-02 1.293438e-03 -4.165476e-02 -6.433275e-02 2.472355e-03 -2.216263e-02 -7.696386e-04 3.375378e-04 -7.810152e-04 1.124673e-02 5.737634e-03 1.120638e-03 7.028520e-04 -4.138619e-03 -1.119081e-02 7.558281e-03 3.660937e-03 -1.388781e-03
<VARIANCE> 39
 4.693607e+00 4.436330e-01 4.997177e-01 1.158530e+00 7.399546e-02 1.261688e-01 2.139443e-01 3.143833e-01 2.861642e-01 1.100161e-01 1.007467e-01 6.628965e-01 1.750135e-03 1.282687e-01 3.149913e-02 3.177154e-02 4.245220e-02 6.111817e-03 8.786975e-03 7.296334e-03 1.312639e-02 8.163666e-03 1.367291e-02 4.014847e-03 2.259626e-02 3.019642e-05 2.166293e-02 4.826223e-03 3.389467e-03 5.805872e-03 1.117270e-03 1.291556e-03 1.030652e-03 1.948346e-03 1.853711e-03 2.767891e-03 8.027859e-04 2.445173e-03 3.018298e-06
<GCONST> -9.264410e+01
<TRANSP> 5
 0.000000e+00 1.000000e+00 0.000000e+00 0.000000e+00 0.000000e+00
 0.000000e+00 8.257558e-01 1.742442e-01 0.000000e+00 0.000000e+00
 0.000000e+00 0.000000e+00 5.410621e-01 4.589380e-01 0.000000e+00
 0.000000e+00 0.000000e+00 0.000000e+00 6.778733e-01 3.221267e-01
 0.000000e+00 0.000000e+00 0.000000e+00 0.000000e+00 0.000000e+00
<ENDHMM>
~h "a"
<BEGINHMM>
<NUMSTATES> 5
<STATE> 2
<NUMMIXES> 2
<MIXTURE> 1 5.503939e-01
<MEAN> 39
 3.489137e+00 -1.848950e+00 -1.144206e+00 -1.258339e+00 -6.251521e-02 6.424647e-02 -3.350971e-01 1.091752e-01 3.432006e-01 -6.963281e-02 -1.586097e-01 -5.530009e-01 8.120877e-01 2.415619e-01 -3.868044e-01 -2.313400e-01 -1.907601e-01 6.689864e-02 1.023120e-01 4.392778e-02 4.410020e-02 9.482139e-02 -3.701134e-02 -5.292677e-02 -7.345158e-02 3.456195e-02 -1.254319e-01 9.116435e-02 7.073954e-02 8.343912e-02 2.525884e-02 -5.131978e-03 8.448168e-03 -2.706946e-02 -3.450318e-02 1.195674e-03 -1.502768e-04 2.021939e-02 -1.332171e-02
<VARIANCE> 39
 2.211772e+00 1.073566e+00 9.454923e-01 5.317006e-01 5.009110e-01 9.768740e-01 4.345639e-01 3.976098e-01 3.394206e-01 3.082688e-01 3.146091e-01 2.555823e-01 2.217473e-02 2.869438e-01 9.211931e-02 5.084809e-02 4.070094e-02 3.597553e-02 3.085999e-02 2.581194e-02 2.222666e-02 1.827371e-02 1.560888e-02 1.448935e-02 1.368759e-02 1.276142e-03 4.135421e-02 1.050471e-02 6.751345e-03 5.110781e-03 4.092780e-03 6.032040e-03 3.761047e-03 3.450016e-03 2.381716e-03 2.206082e-03 2.185614e-03 1.898158e-03 2.346525e-04
<GCONST> -5.941895e+01
<MIXTURE> 2 4.495951e-01
<MEAN> 39
 2.795357e+00 -2.392853e+00 -8.625131e-01 -1.362201e+00 6.197155e-01 -1.614818e-01 -2.218501e-01 -1.201552e-01 -1.435542e-01 -2.505422e-01 -6.659526e-01 -3.403689e-01 7.994933e-01 7.290702e-01 -2.866105e-01 -7.273060e-02 -2.309721e-01 3.557362e-02 -2.456517e-02 -4.996463e-02 -4.330055e-02 -6.621834e-02 -2.863305e-02 -1.076887e-01 -4.850062e-02 6.554222e-02 -2.022517e-01 9.863386e-02 2.988441e-02 8.206077e-02 -2.836258e-02 1.180100e-02 1.122499e-02 1.823901e-02 1.642711e-02 1.966148e-02 3.989580e-02 1.855741e-02 -2.015614e-02
<VARIANCE> 39
 2.313918e+00 1.797154e+00 7.115642e-01 7.921714e-01 6.598765e-01 5.704743e-01 4.458409e-01 3.564746e-01 2.471985e-01 4.022168e-01 2.881319e-01 1.743723e-01 1.876648e-02 2.580070e-01 1.330032e-01 4.346614e-02 4.516751e-02 4.376293e-02 3.255781e-02 2.110038e-02 2.054100e-02 1.419494e-02 1.788468e-02 1.697097e-02 1.232721e-02 1.924263e-03 3.726329e-02 2.157382e-02 6.490162e-03 8.850250e-03 6.059609e-03 4.682476e-03 3.550105e-03 3.725536e-03 2.168996e-03 2.687455e-03 2.353599e-03 1.560687e-03 2.896094e-04
<GCONST> -5.777722e+01
<STATE> 3
<NUMMIXES> 2
<MIXTURE> 1 3.911559e-01
<MEAN> 39
 3.397724e+00 -2.536142e+00 -1.228465e+00 -1.423840e+00 3.785615e-01 1.371383e-01 -2.276506e-01 -3.004894e-02 2.391144e-01 -1.722223e-01 -3.601347e-01 -5.700450e-01 8.541352e-01 1.318681e-01 8.625784e-02 5.840008e-02 6.423274e-02 -1.715523e-02 -2.602704e-02 -2.304402e-02 -8.172083e-03 -4.102702e-02 9.668260e-03 -6.275968e-03 -3.529128e-04 2.059142e-03 -1.483463e-01 2.024681e-01 9.487271e-02 1.199946e-01 -1.921800e-02 -2.774057e-02 2.998700e-03 -1.538063e-02 -3.269407e-02 1.178001e-02 2.017522e-02 2.763415e-02 -2.093542e-02
<VARIANCE> 39
 1.712576e+00 1.543876e+00 7.958764e-01 5.908491e-01 6.488625e-01 7.457063e-01 4.737382e-01 3.419812e-01 3.815150e-01 3.751099e-01 3.245974e-01 2.752186e-01 1.861880e-02 1.294544e-01 9.234831e-02 4.638151e-02 2.680763e-02 2.989724e-02 2.980231e-02 2.005816e-02 1.884025e-02 1.558648e-02 1.292350e-02 1.341103e-02 1.144765e-02 6.351011e-04 4.236594e-02 1.431863e-02 7.372990e-03 6.208165e-03 6.379348e-03 6.114086e-03 4.249075e-03 3.666546e-03 3.840537e-03 2.928823e-03 2.681074e-03 2.276752e-03 1.715232e-04
<GCONST> -6.036162e+01
<MIXTURE> 2 6.088284e-01
<MEAN> 39
 3.189687e+00 -2.545207e+00 -1.376030e+00 -1.345408e+00 6.247379e-01 3.268983e-01 -1.296389e-01 -1.714966e-01 1.095542e-01 -2.941966e-01 -4.836844e-01 -4.322925e-01 8.330786e-01 6.397821e-03 2.175348e-03 2.769081e-02 2.846306e-02 1.785195e-03 -1.266487e-02 -9.337977e-04 6.020917e-03 -1.219292e-02 -5.766750e-03 -1.204671e-02 5.899783e-03 -1.925008e-03 5.291807e-03 9.783414e-02 5.684232e-02 3.701550e-02 -3.582295e-02 -3.279077e-02 -1.585698e-02 2.214650e-03 -1.129076e-02 1.254190e-02 1.238519e-02 3.500677e-03 -5.527965e-03
<VARIANCE> 39
 1.610159e+00 1.295196e+00 6.850641e-01 6.481532e-01 5.472712e-01 5.006923e-01 4.584514e-01 2.996442e-01 3.224073e-01 3.151574e-01 2.443133e-01 2.098527e-01 1.104847e-02 4.610567e-02 4.015703e-02 2.689430e-02 1.677239e-02 2.306388e-02 1.942474e-02 1.393955e-02 1.249008e-02 7.696119e-03 6.973571e-03 7.611116e-03 6.733694e-03 2.737062e-04 9.351883e-03 8.712534e-03 3.888129e-03 3.599924e-03 2.963707e-03 2.075717e-03 2.073026e-03 1.773414e-03 1.331843e-03 1.219769e-03 1.353879e-03 9.728883e-04 5.334738e-05
<GCONST> -8.153233e+01
<STATE> 4
<NUMMIXES> 2
<MIXTURE> 1 3.364006e-01
<MEAN> 39
 3.466141e+00 -1.343117e+00 -1.001949e+00 -1.088317e+00 2.378463e-01 -1.625583e-01 -1.791209e-01 -2.075802e-01 5.372832e-02 -7.586589e-02 -4.540677e-01 -4.652767e-01 7.810828e-01 -5.755379e-01 5.927012e-01 1.494118e-01 3.116518e-01 3.163184e-02 3.547511e-02 4.028605e-02 -7.467780e-03 -1.125707e-02 -2.970177e-04 5.709194e-02 5.571024e-02 -5.557672e-02 -3.620918e-01 7.174487e-02 3.867589e-02 7.561616e-02 1.726263e-02 2.421057e-02 1.592411e-02 2.447052e-02 1.319182e-02 1.689195e-03 2.874818e-02 2.597738e-02 -1.946492e-02
<VARIANCE> 39
 2.453458e+00 1.706038e+00 8.580623e-01 6.924796e-01 5.727997e-01 6.699222e-01 4.500245e-01 3.271446e-01 3.368706e-01 3.958099e-01 4.638784e-01 2.377498e-01 2.383755e-02 3.782173e-01 1.385752e-01 4.799437e-02 3.810713e-02 4.015656e-02 3.004570e-02 2.310699e-02 1.827347e-02 1.734133e-02 1.349130e-02 1.491627e-02 1.375320e-02 1.582735e-03 3.290829e-02 1.721779e-02 7.233932e-03 5.906053e-03 3.846667e-03 3.781474e-03 2.781064e-03 2.464779e-03 2.255008e-03 2.449223e-03 3.406921e-03 1.894175e-03 1.981016e-04
<GCONST> -5.843427e+01
<MIXTURE> 2 6.635898e-01
<MEAN> 39
 3.727722e+00 -2.231068e+00 -5.861385e-01 -1.154335e+00 1.989194e-01 -1.609726e-01 -5.294052e-01 2.217300e-01 -1.482914e-01 -2.164314e-01 -5.055835e-01 -3.898775e-01 8.305730e-01 2.204519e-01 4.870036e-01 2.774203e-01 2.433340e-01 -1.921419e-01 -1.942986e-01 -1.768457e-03 -9.175637e-02 -1.121742e-01 6.682651e-02 1.331171e-02 2.126309e-02 -1.166970e-02 5.012216e-03 1.175826e-01 2.856806e-02 5.898673e-02 -2.608984e-02 -9.794955e-03 2.545804e-02 -5.744657e-02 -7.418464e-03 1.266827e-02 1.028293e-02 4.926421e-03 -2.960523e-03
<VARIANCE> 39
 1.515693e+00 1.465786e+00 8.947483e-01 6.674805e-01 6.052771e-01 6.987969e-01 4.295528e-01 3.353883e-01 4.086250e-01 3.623852e-01 3.611872e-01 2.835304e-01 7.740187e-03 6.120051e-02 6.879562e-02 3.801589e-02 4.050466e-02 3.467651e-02 2.614772e-02 2.490974e-02 2.518375e-02 1.996835e-02 1.566357e-02 1.527130e-02 1.236608e-02 2.334742e-04 1.067251e-02 1.101876e-02 5.962290e-03 4.008675e-03 5.115178e-03 4.294717e-03 3.303480e-03 2.636774e-03 2.469644e-03 1.930825e-03 1.816745e-03 1.626826e-03 3.365638e-05
<GCONST> -6.857249e+01
<TRANSP> 5
 0.000000e+00 1.000000e+00 0.000000e+00 0.000000e+00 0.000000e+00
 0.000000e+00 5.685534e-01 4.314466e-01 0.000000e+00 0.000000e+00
 0.000000e+00 0.000000e+00 6.699241e-01 3.300759e-01 0.000000e+00
 0.000000e+00 0.000000e+00 0.000000e+00 5.487199e-01 4.512801e-01
 0.000000e+00 0.000000e+00 0.000000e+00 0.000000e+00 0.000000e+00
<ENDHMM>
~h "f"
<BEGINHMM>
<NUMSTATES> 5
<STATE> 2
<NUMMIXES> 2
<MIXTURE> 1 3.815347e-01
<MEAN> 39
 -4.210117e-01 6.981611e-01 2.169988e-01 8.301568e-01 1.136731e-01 1.620416e-01 -1.926907e-01 -8.902601e-02 -1.786206e-01 -2.210063e-01 -1.799485e-01 -1.575348e-01 5.489169e-01 -1.674036e+00 -1.128004e-01 -1.255351e-01 2.428401e-01 1.092228e-01 1.333489e-01 8.904072e-02 1.416123e-01 1.363398e-01 3.428585e-02 8.446232e-02 9.378025e-02 -8.880359e-02 -1.427795e-02 -1.419616e-01 -5.821716e-02 -9.425010e-02 -4.496146e-02 -2.536063e-02 -7.913742e-03 7.999574e-03 1.207963e-02 2.797384e-02 1.418306e-02 1.117206e-02 4.548517e-03
<VARIANCE> 39
 4.859548e+00 1.149372e+00 7.523752e-01 5.113189e-01 3.946550e-01 3.879129e-01 2.878677e-01 2.442078e-01 2.143976e-01 2.013335e-01 1.513781e-01 1.464160e-01 1.638084e-02 1.120464e-01 1.166281e-01 7.760802e-02 6.971974e-02 3.398076e-02 3.796553e-02 2.491624e-02 2.019837e-02 1.858567e-02 1.661645e-02 2.572502e-02 1.235391e-02 5.094153e-04 4.302906e-02 8.699547e-03 4.873654e-03 4.616611e-03 3.197566e-03 3.520518e-03 2.532484e-03 2.330989e-03 1.847868e-03 2.013750e-03 1.462488e-03 1.501553e-03 1.205988e-04
<GCONST> -6.725700e+01
<MIXTURE> 2 6.184514e-01
<MEAN> 39
 -4.128972e+00 -6.175168e-01 -6.041864e-01 6.749479e-01 6.803289e-02 3.304174e-01 6.448408e-03 3.031904e-01 2.233938e-01 1.155141e-01 1.599127e-01 1.637744e-01 3.169648e-01 -9.839249e-01 -3.567490e-01 -2.138640e-01 -1.473518e-02 -3.969086e-02 5.376758e-03 6.489466e-03 7.526169e-02 9.716875e-02 7.119298e-02 7.261386e-02 7.203940e-02 -3.416676e-02 3.653489e-01 2.092683e-02 1.253371e-02 -6.788255e-02 -3.382876e-02 -3.810683e-02 -1.926847e-02 -3.702125e-02 -2.682443e-02 -4.748748e-03 -1.353338e-02 -1.658982e-02 2.029285e-02
<VARIANCE> 39
 2.413422e+00 1.217739e+00 6.906497e-01 4.971709e-01 3.837437e-01 2.958705e-01 2.409520e-01 1.736383e-01 1.681154e-01 1.370133e-01 1.633283e-01 1.202542e-01 2.003764e-02 3.599121e-01 6.108088e-02 4.537456e-02 3.766814e-02 2.124345e-02 2.098695e-02 1.550480e-02 1.503539e-02 1.161544e-02 1.008487e-02 1.170092e-02 7.722227e-03 1.775552e-03 4.608447e-02 1.446142e-02 7.626279e-03 7.087044e-03 3.902179e-03 3.480315e-03 2.408843e-03 2.089719e-03 1.761212e-03 1.655762e-03 1.934665e-03 1.369515e-03 1.595719e-04
<GCONST> -7.111531e+01
<STATE> 3
<NUMMIXES> 2
<MIXTURE> 1 4.351736e-01
<MEAN> 39
 -5.176270e+00 -1.516255e+00 -1.167313e+00 4.101962e-01 -2.303476e-01 2.196715e-01 -1.716145e-02 4.121633e-01 4.554811e-01 4.027507e-01 5.197830e-01 3.304157e-01 3.738346e-01 7.505613e-02 -8.583004e-02 -1.448174e-02 -3.780895e-02 -3.740702e-03 -5.006234e-03 1.171872e-02 4.514364e-03 2.660158e-02 2.124502e-02 1.385994e-02 1.430334e-02 -1.482611e-04 3.906033e-01 1.081049e-01 6.989699e-02 -2.142103e-02 1.628675e-02 -5.867469e-03 -8.511269e-03 -3.946647e-02 -4.523930e-02 -4.123048e-02 -4.559936e-02 -3.410650e-02 1.043879e-02
<VARIANCE> 39
 1.741267e+00 8.625808e-01 6.611707e-01 4.133519e-01 3.808668e-01 2.907390e-01 2.511521e-01 1.923427e-01 1.583598e-01 1.312272e-01 1.471000e-01 1.100051e-01 1.731985e-02 3.136336e-01 5.466940e-02 4.473683e-02 2.502945e-02 1.987614e-02 1.582328e-02 1.174369e-02 1.046074e-02 9.268767e-03 8.220210e-03 8.414720e-03 6.951113e-03 9.089771e-04 4.161504e-02 1.020719e-02 5.824564e-03 5.346220e-03 3.493991e-03 3.085705e-03 2.428053e-03 2.171227e-03 1.611468e-03 1.284912e-03 1.685673e-03 1.230997e-03 2.867634e-04
<GCONST> -7.672115e+01
<MIXTURE> 2 5.648010e-01
<MEAN> 39
 -5.153155e+00 -1.169293e+00 -1.265404e+00 2.793740e-01 -2.625829e-01 5.528598e-02 -2.374358e-01 1.963888e-01 1.951010e-01 1.802199e-01 1.678032e-01 2.923376e-01 3.140723e-01 1.862733e-02 -1.225654e-01 -8.345055e-02 -7.585803e-02 -5.155558e-02 -3.426326e-02 -2.852044e-02 -2.985941e-02 -9.750539e-03 -3.977229e-03 2.251221e-03 1.201164e-03 8.107539e-03 2.991875e-01 5.882061e-02 4.996666e-02 -7.834642e-03 2.587067e-02 1.497990e-02 1.552129e-02 -6.915552e-03 -7.741520e-03 -6.578621e-03 -4.067895e-03 -1.390220e-02 7.663559e-03
<VARIANCE> 39
 2.048571e+00 9.487061e-01 4.986895e-01 3.734310e-01 2.995710e-01 2.784730e-01 2.158026e-01 1.691514e-01 1.347088e-01 1.125592e-01 1.341181e-01 9.066035e-02 1.612512e-02 2.308764e-01 3.621571e-02 2.525354e-02 1.823777e-02 1.258750e-02 1.162787e-02 8.164605e-03 6.118373e-03 5.278356e-03 4.665552e-03 4.085566e-03 4.436756e-03 7.646909e-04 4.237537e-02 7.373786e-03 4.457647e-03 3.600797e-03 2.385426e-03 2.309138e-03 1.589553e-03 1.261160e-03 1.043336e-03 8.667131e-04 8.047515e-04 8.489560e-04 2.054231e-04
<GCONST> -8.870920e+01
<STATE> 4
<NUMMIXES> 2
<MIXTURE> 1 5.466953e-01
<MEAN> 39
 -2.117259e+00 -9.122932e-01 -8.125889e-01 3.561344e-02 1.358292e-02 1.402577e-01 -1.031319e-01 1.325698e-02 9.896258e-02 2.667788e-02 -2.227242e-02 6.414755e-02 3.778907e-01 1.197040e+00 1.549677e-01 9.400792e-02 -1.222602e-01 2.719884e-02 2.683994e-02 2.080962e-02 -5.604931e-02 -3.947043e-02 -2.229700e-02 -1.391320e-02 -5.923083e-02 4.983153e-02 1.169509e-01 2.057859e-02 1.367883e-02 -1.317836e-02 -4.641016e-03 3.381752e-03 -1.228815e-03 -1.312991e-03 3.225218e-04 6.233752e-03 1.115156e-02 -5.753201e-03 1.016529e-02
<VARIANCE> 39
 7.029098e+00 1.515412e+00 9.234201e-01 6.186141e-01 4.567078e-01 4.552487e-01 2.859382e-01 2.267345e-01 2.128086e-01 1.573675e-01 1.916678e-01 1.448497e-01 3.931080e-02 6.145074e-01 9.773828e-02 6.172093e-02 5.853441e-02 3.571068e-02 3.465251e-02 1.980323e-02 1.569270e-02 1.582001e-02 1.156694e-02 1.560297e-02 1.171117e-02 3.827534e-03 5.601856e-02 1.213405e-02 5.471047e-03 5.150135e-03 3.722928e-03 3.496569e-03 2.526741e-03 1.779513e-03 1.846548e-03 1.360605e-03 1.427034e-03 1.175340e-03 2.362053e-04
<GCONST> -6.290209e+01
<MIXTURE> 2 4.532910e-01
<MEAN> 39
 -3.811315e+00 -1.657646e+00 -1.107839e+00 2.122689e-01 -2.374258e-01 1.580923e-01 1.695965e-02 2.923818e-01 3.678250e-01 2.573966e-01 3.697169e-01 2.460381e-01 3.508969e-01 1.383680e+00 1.633315e-01 1.704242e-01 -1.945493e-01 -3.713973e-03 -7.412270e-02 -6.035413e-02 -1.353295e-01 -1.363714e-01 -9.340803e-02 -1.420485e-01 -9.995050e-02 6.443134e-02 3.327317e-01 7.563160e-02 4.613889e-02 -6.593040e-02 -1.010441e-02 -1.812625e-02 -2.884427e-02 -3.194758e-02 -4.256700e-02 -1.529839e-02 -3.439527e-02 -2.396358e-02 2.413101e-02
<VARIANCE> 39
 2.696973e+00 7.093888e-01 1.027395e+00 3.687533e-01 4.289849e-01 3.691455e-01 2.898944e-01 1.981779e-01 1.593153e-01 1.488209e-01 1.582761e-01 1.159365e-01 1.233862e-02 1.579164e-01 8.877897e-02 5.538021e-02 4.501237e-02 2.866195e-02 2.374427e-02 1.902933e-02 1.331932e-02 1.176607e-02 1.069406e-02 1.607702e-02 8.912679e-03 1.007161e-03 3.742622e-02 1.021101e-02 6.300928e-03 6.013574e-03 3.859603e-03 3.217975e-03 2.609593e-03 2.262069e-03 2.017746e-03 1.979240e-03 2.280816e-03 1.622992e-03 9.751308e-05
<GCONST> -7.160555e+01
<TRANSP> 5
 0.000000e+00 1.000000e+00 0.000000e+00 0.000000e+00 0.000000e+00
 0.000000e+00 6.649355e-01 3.350645e-01 0.000000e+00 0.000000e+00
 0.000000e+00 0.000000e+00 7.077771e-01 2.922228e-01 0.000000e+00
 0.000000e+00 0.000000e+00 0.000000e+00 6.088506e-01 3.911494e-01
 0.000000e+00 0.000000e+00 0.000000e+00 0.000000e+00 0.000000e+00
<ENDHMM>
~h "h"
<BEGINHMM>
<NUMSTATES> 5
<STATE> 2
<NUMMIXES> 2
<MIXTURE> 1 5.807009e-01
<MEAN> 39
 3.243982e+00 -2.125635e-01 7.251956e-02 -5.765030e-01 2.640851e-02 4.285107e-02 -2.103149e-01 -1.502409e-01 -2.033756e-01 -2.312470e-01 -2.537587e-01 -2.480401e-01 7.307963e-01 -1.499649e-01 7.423044e-02 6.037775e-02 8.347683e-02 4.919363e-02 5.453838e-02 4.235400e-02 8.804278e-03 -4.369227e-03 -1.198172e-02 9.015212e-03 1.777600e-02 -1.656132e-02 -3.481954e-02 -1.891693e-02 -4.153394e-03 4.693052e-03 -6.135319e-04 -4.924016e-03 -1.609757e-03 1.857550e-03 4.288014e-03 5.190967e-03 1.980210e-03 9.589220e-04 -1.186271e-03
<VARIANCE> 39
 3.007730e+00 2.258256e+00 1.485916e+00 1.766946e+00 8.631123e-01 1.047144e+00 5.642378e-01 5.288578e-01 3.850921e-01 3.625522e-01 3.206534e-01 2.416925e-01 1.080156e-02 1.910838e-01 8.002815e-02 4.325698e-02 6.140416e-02 3.760174e-02 3.450403e-02 2.102773e-02 1.856948e-02 1.338395e-02 1.302940e-02 8.867146e-03 9.417925e-03 5.150264e-04 1.732772e-02 7.704595e-03 4.190152e-03 5.231442e-03 3.415286e-03 3.082340e-03 2.273598e-03 2.379732e-03 1.556413e-03 1.493708e-03 1.157827e-03 1.116749e-03 4.988467e-05
<GCONST> -6.570390e+01
<MIXTURE> 2 4.192898e-01
<MEAN> 39
 -7.913096e-01 -9.939992e-01 -1.439250e-03 2.242477e-01 7.699301e-01 3.600115e-01 -1.888191e-02 1.387443e-01 7.962421e-02 -2.037046e-01 -1.378299e-01 -1.846094e-01 5.193485e-01 1.998388e-02 -1.673431e-01 -7.310378e-02 -2.597015e-02 7.636064e-02 6.228237e-02 5.262958e-03 7.194351e-03 2.406819e-02 -3.167331e-02 3.758963e-03 -1.636318e-02 -7.444462e-04 2.082606e-01 6.453817e-02 -8.164052e-03 -5.331898e-02 -4.491415e-02 -3.675484e-02 -1.542822e-02 -3.708289e-02 -2.123150e-02 3.006467e-05 -6.208932e-03 -4.345686e-03 1.244359e-02
<VARIANCE> 39
 7.818347e+00 3.290404e+00 1.070100e+00 8.317868e-01 7.937402e-01 5.981606e-01 5.021766e-01 4.590771e-01 4.047330e-01 4.188386e-01 3.136826e-01 2.752699e-01 3.780722e-02 6.573684e-01 1.018802e-01 6.684709e-02 4.840078e-02 4.142085e-02 3.086289e-02 1.937081e-02 2.209328e-02 1.961546e-02 1.283446e-02 1.450816e-02 1.085813e-02 1.632735e-03 4.192111e-02 1.486121e-02 7.368735e-03 7.590203e-03 4.950665e-03 4.263107e-03 3.427347e-03 3.579810e-03 2.985673e-03 2.650310e-03 2.105033e-03 1.819014e-03 1.172447e-04
<GCONST> -5.373746e+01
<STATE> 3
<NUMMIXES> 2
<MIXTURE> 1 5.829639e-01
<MEAN> 39
 -8.697770e-02 -1.656123e-01 2.097084e-01 2.867134e-01 4.333039e-01 3.025993e-01 1.753165e-01 1.350016e-01 1.100039e-02 2.129765e-02 1.960163e-04 1.055972e-01 3.941474e-01 -3.846386e-02 1.411906e-02 6.594919e-03 -3.723790e-02 -2.597398e-02 1.354850e-02 1.395332e-02 -1.230406e-02 -4.454997e-03 -4.382868e-03 2.455016e-03 1.659131e-02 -1.235842e-02 8.804653e-02 -4.505897e-03 -1.655776e-02 -2.638606e-02 -2.624121e-02 -2.935806e-02 -2.192689e-02 -8.775614e-03 -4.656070e-03 -8.042359e-04 -2.812111e-03 -1.133778e-02 7.844674e-03
<VARIANCE> 39
 8.957795e+00 1.581215e+00 1.752560e+00 9.457095e-01 6.596100e-01 5.800617e-01 4.247850e-01 3.517715e-01 3.026502e-01 2.513765e-01 2.319263e-01 1.856955e-01 9.478398e-02 1.295981e-01 4.424818e-02 3.417509e-02 2.260390e-02 1.739111e-02 1.781342e-02 1.331022e-02 9.190201e-03 8.178198e-03 8.201528e-03 6.543504e-03 5.974777e-03 1.006620e-03 1.859245e-02 9.235081e-03 6.693058e-03 4.811731e-03 3.772098e-03 3.608663e-03 2.576224e-03 1.741167e-03 1.717664e-03 1.438095e-03 1.180562e-03 1.077338e-03 1.315902e-04
<GCONST> -7.013594e+01
<MIXTURE> 2 4.170334e-01
<MEAN> 39
 -1.242090e+00 -2.119650e+00 -5.164179e-01 -1.646190e-01 7.892418e-01 5.374767e-01 1.103101e-02 6.725383e-03 1.903175e-01 -1.376598e-01 -7.136539e-02 -1.766798e-01 4.548610e-01 7.914549e-01 1.233637e-01 -1.050088e-02 -1.426929e-01 -1.498686e-02 -2.859990e-02 -4.475955e-02 -1.385336e-01 -8.326500e-02 -9.256891e-02 -6.665371e-02 -7.675613e-02 5.630328e-02 1.639337e-01 9.073378e-02 -7.061110e-03 -5.212530e-02 -3.519009e-02 -2.435919e-02 -8.020828e-03 -1.229094e-02 -1.410023e-02 -2.910585e-03 -1.414172e-03 4.391400e-04 1.462730e-02
<VARIANCE> 39
 4.869878e+00 2.069251e+00 1.317438e+00 8.377303e-01 8.537739e-01 4.301098e-01 3.983037e-01 3.315840e-01 3.170747e-01 3.053969e-01 2.532952e-01 2.217975e-01 3.136375e-02 3.004246e-01 1.135984e-01 6.928943e-02 4.123107e-02 2.905738e-02 2.506966e-02 2.264315e-02 1.642174e-02 1.828086e-02 1.278880e-02 1.648876e-02 1.076507e-02 1.493240e-03 2.737704e-02 1.329541e-02 7.709049e-03 6.880925e-03 4.435007e-03 3.024966e-03 2.543391e-03 2.572821e-03 2.405233e-03 1.959502e-03 1.895831e-03 1.617367e-03 1.154568e-04
<GCONST> -6.042357e+01
<STATE> 4
<NUMMIXES> 2
<MIXTURE> 1 6.112546e-01
<MEAN> 39
 -1.841381e+00 7.298723e-01 2.293353e-02 6.685289e-01 4.456337e-01 4.722029e-01 4.975348e-01 2.449305e-01 3.020490e-01 1.257705e-01 2.001685e-01 2.666754e-01 -1.119350e-01 -2.448440e-02 7.657029e-03 6.764486e-03 1.122238e-03 2.245125e-03 5.665790e-03 6.234861e-03 5.169150e-03 3.754186e-03 1.628069e-03 1.348876e-03 6.499958e-04 -5.086667e-04 3.076958e-03 -2.971909e-03 -1.449049e-03 -3.030197e-04 3.685364e-04 -3.400769e-04 -7.115224e-04 -3.342290e-04 -5.476649e-04 -4.840533e-04 -6.618853e-04 -5.104787e-04 1.534479e-04
<VARIANCE> 39
 9.152365e-01 2.834747e-01 2.600186e-01 2.252682e-01 1.937855e-01 2.508506e-01 1.475306e-01 1.775812e-01 1.380325e-01 1.087050e-01 1.435413e-01 9.382984e-02 3.800924e-03 8.527195e-03 6.003449e-03 5.021636e-03 4.211504e-03 4.146826e-03 4.279552e-03 3.852710e-03 3.645907e-03 3.466903e-03 2.995716e-03 2.842907e-03 2.823786e-03 4.566424e-05 1.258529e-03 9.709850e-04 9.042004e-04 7.352534e-04 7.423013e-04 7.826810e-04 6.655174e-04 6.377920e-04 6.365312e-04 5.389641e-04 5.108949e-04 5.165772e-04 7.962581e-06
<GCONST> -1.278564e+02
<MIXTURE> 2 3.887372e-01
<MEAN> 39
 1.701481e+00 -4.971872e-01 2.405148e-03 -3.557646e-01 4.968526e-01 2.732421e-01 -2.198998e-02 -3.070101e-01 -1.697482e-01 -4.307300e-01 -3.005094e-01 -3.348512e-01 6.905244e-01 6.141908e-01 3.854099e-02 -1.140419e-01 -2.419932e-01 -1.052709e-01 -6.872395e-02 -3.985984e-02 -6.790578e-02 -3.673719e-02 -1.671670e-02 -2.175768e-02 -1.897729e-02 4.778903e-02 -2.106235e-03 -6.221453e-02 -2.091074e-02 -3.007584e-02 -3.320079e-02 -1.289659e-02 -9.682776e-03 1.851047e-02 5.435695e-03 2.155495e-02 5.525948e-03 9.620572e-03 3.184033e-03
<VARIANCE> 39
 3.174624e+00 1.696044e+00 1.914484e+00 6.613289e-01 8.427359e-01 5.562694e-01 5.420311e-01 3.717846e-01 3.405313e-01 3.167807e-01 2.601064e-01 2.403579e-01 1.710435e-02 2.355597e-01 7.773208e-02 6.106206e-02 4.259078e-02 2.714552e-02 2.449035e-02 1.945039e-02 1.671403e-02 1.910266e-02 1.226094e-02 1.218026e-02 1.012387e-02 1.209756e-03 1.632423e-02 6.836367e-03 5.133405e-03 3.447298e-03 2.746855e-03 2.421358e-03 2.354946e-03 1.806559e-03 1.545693e-03 1.460284e-03 1.402055e-03 1.220056e-03 6.224326e-05
<GCONST> -6.750302e+01
<TRANSP> 5
 0.000000e+00 1.000000e+00 0.000000e+00 0.000000e+00 0.000000e+00
 0.000000e+00 7.197331e-01 2.802669e-01 0.000000e+00 0.000000e+00
 0.000000e+00 0.000000e+00 6.325204e-01 3.674797e-01 0.000000e+00
 0.000000e+00 0.000000e+00 0.000000e+00 7.569771e-01 2.430229e-01
 0.000000e+00 0.000000e+00 0.000000e+00 0.000000e+00 0.000000e+00
<ENDHMM>
~h "j"
<BEGINHMM>
<NUMSTATES> 5
<STATE> 2
<NUMMIXES> 2
<MIXTURE> 1 6.793463e-01
<MEAN> 39
 -1.589798e+00 9.171670e-02 -2.824991e-01 4.515274e-01 2.544336e-01 2.403123e-01 5.251808e-01 3.088307e-01 2.023424e-01 6.126029e-02 3.810179e-01 2.888945e-01 -1.128066e-01 -1.528651e-02 1.747164e-02 7.451042e-03 -4.977120e-03 1.990225e-03 1.013389e-02 -7.373044e-05 -3.895263e-03 2.430022e-03 1.725717e-03 -2.353430e-03 7.380843e-04 -6.064614e-04 -1.634442e-03 6.104120e-04 3.915806e-03 -3.871029e-04 -7.686078e-04 -2.862137e-05 -9.921434e-04 -1.581510e-03 -4.110486e-04 1.069563e-03 -8.170657e-04 -1.680265e-04 4.278171e-04
<VARIANCE> 39
 1.081567e+00 1.253763e+00 3.203807e-01 3.796095e-01 3.179216e-01 3.243910e-01 2.222645e-01 1.777486e-01 1.697322e-01 1.297698e-01 2.464719e-01 1.066744e-01 5.266473e-03 1.759556e-02 1.497796e-02 6.943093e-03 6.193143e-03 6.777056e-03 6.019042e-03 4.795670e-03 4.391314e-03 4.262263e-03 3.853779e-03 3.363905e-03 3.047206e-03 4.395836e-05 2.764641e-03 1.968003e-03 1.193775e-03 1.062936e-03 1.186208e-03 1.015759e-03 8.403979e-04 7.840109e-04 7.892906e-04 6.936432e-04 6.235993e-04 5.649455e-04 7.570508e-06
<GCONST> -1.146652e+02
<MIXTURE> 2 3.206501e-01
<MEAN> 39
 -9.559991e-01 7.466134e-01 1.161224e+00 -4.104503e-02 -3.383728e-01 -1.544620e-01 7.855924e-02 -1.166743e-01 -2.184484e-01 4.676481e-03 7.109807e-02 -4.379071e-03 3.313811e-01 -1.798169e-01 1.704991e-01 8.699592e-02 9.085376e-03 4.778365e-02 2.692325e-02 -1.834987e-02 -1.882139e-02 5.733524e-03 -1.261698e-02 7.862879e-03 4.743013e-03 -1.282993e-02 5.005791e-02 -2.857031e-02 -1.350739e-02 -4.228756e-03 1.584667e-03 -8.020866e-03 -4.449478e-03 9.527184e-03 4.290053e-03 -6.133251e-05 -4.945297e-04 -2.763341e-04 4.354860e-03
<VARIANCE> 39
 7.009510e+00 3.125156e+00 2.500642e+00 1.105780e+00 8.232962e-01 7.641568e-01 6.264040e-01 4.424706e-01 3.496414e-01 3.056831e-01 3.426294e-01 2.228071e-01 1.458573e-01 3.396063e-01 1.357057e-01 9.271853e-02 3.975316e-02 4.227718e-02 2.864848e-02 1.910989e-02 1.617834e-02 1.603488e-02 1.370547e-02 1.176387e-02 8.014305e-03 1.784672e-03 3.181728e-02 1.780522e-02 1.071026e-02 5.720739e-03 5.609482e-03 3.787558e-03 2.654854e-03 2.254488e-03 2.124983e-03 2.213368e-03 1.598855e-03 1.271344e-03 2.069390e-04
<GCONST> -5.401646e+01
<STATE> 3
<NUMMIXES> 2
<MIXTURE> 1 5.349707e-01
<MEAN> 39
 -2.857567e+00 1.105450e+00 1.261640e+00 -2.914898e-01 1.091283e-01 1.793850e-01 4.476088e-02 1.265467e-02 1.534798e-01 1.014697e-01 2.348999e-01 2.125821e-01 2.279787e-01 -1.336073e-01 1.332636e-01 2.231451e-01 -8.723411e-02 -1.695556e-02 -3.590792e-02 -6.247688e-02 -3.737553e-02 -2.751213e-02 -1.749106e-02 -1.614233e-02 -1.157873e-02 3.446590e-02 2.039596e-01 -2.031140e-02 2.821951e-02 -3.762704e-03 -4.956870e-02 -3.947554e-02 -1.742473e-02 -1.345830e-02 -3.015694e-02 -1.399666e-02 -1.756095e-02 -1.799749e-02 1.616272e-02
<VARIANCE> 39
 8.917274e+00 2.278702e+00 1.736583e+00 1.107261e+00 8.667065e-01 6.311414e-01 4.378994e-01 3.017744e-01 3.499259e-01 2.333528e-01 2.630398e-01 1.849523e-01 1.277730e-01 2.558425e-01 9.522046e-02 5.860699e-02 4.022089e-02 3.024900e-02 1.794268e-02 1.279746e-02 1.069970e-02 1.188543e-02 8.954388e-03 7.506348e-03 5.894865e-03 1.671194e-03 5.501110e-02 1.867942e-02 1.163346e-02 9.766378e-03 7.340240e-03 4.168919e-03 2.582553e-03 2.625208e-03 2.640203e-03 1.930238e-03 1.696343e-03 1.282578e-03 2.829653e-04
<GCONST> -5.827288e+01
<MIXTURE> 2 4.650270e-01
<MEAN> 39
 -2.381207e+00 1.848223e+00 2.102999e+00 -1.989826e-01 -9.028150e-02 1.607648e-02 -1.787658e-01 -1.830363e-01 -1.498031e-01 -1.737404e-01 -4.225082e-02 1.339631e-02 3.383328e-01 9.710447e-01 6.573227e-02 4.097384e-01 -7.936034e-02 -2.806181e-01 -2.247927e-01 -1.890148e-01 -7.874954e-02 -1.622106e-01 -6.409639e-02 -6.191090e-02 -7.649888e-02 1.143243e-01 1.663385e-01 -1.337561e-01 -5.276020e-02 -1.833287e-02 -4.467986e-02 -2.931296e-02 -8.407583e-03 1.438764e-02 -6.034269e-03 1.892315e-02 3.275312e-03 1.965282e-03 1.144594e-02
<VARIANCE> 39
 7.374439e+00 2.103304e+00 1.453496e+00 7.419233e-01 7.392911e-01 4.561112e-01 3.473125e-01 2.620429e-01 2.840548e-01 2.517633e-01 1.914462e-01 1.819219e-01 7.494323e-02 3.378313e-01 1.405824e-01 6.304179e-02 6.792570e-02 2.860808e-02 2.727030e-02 1.862705e-02 1.999752e-02 1.740530e-02 1.360216e-02 1.948325e-02 1.208913e-02 2.215061e-03 6.075545e-02 1.448872e-02 1.360827e-02 6.102142e-03 7.032381e-03 4.414727e-03 2.995926e-03 2.589191e-03 2.568212e-03 2.229788e-03 1.887411e-03 1.429397e-03 3.254092e-04
<GCONST> -5.544459e+01
<STATE> 4
<NUMMIXES> 2
<MIXTURE> 1 5.327606e-01
<MEAN> 39
 1.230929e+00 1.004916e+00 3.096843e+00 -3.607188e-01 -1.329389e+00 -9.135124e-01 -6.219190e-01 -3.812485e-02 -6.228623e-01 -2.961577e-01 1.621313e-01 -1.453984e-01 7.694301e-01 1.524125e-01 -2.839696e-01 -1.592230e-01 -3.286616e-02 -3.251118e-02 -7.311085e-02 -2.172479e-03 4.011548e-02 4.176273e-02 -9.594135e-04 2.128521e-02 -3.633616e-03 2.283559e-02 5.335191e-02 -7.050107e-02 -1.039247e-01 -9.452422e-03 2.939553e-02 8.182916e-03 1.251337e-02 7.834260e-03 2.488121e-02 6.744772e-03 -1.059145e-02 -4.895776e-03 -3.194140e-05
<VARIANCE> 39
 2.346183e+00 2.993002e+00 1.116683e+00 9.238074e-01 4.428143e-01 6.623616e-01 3.293570e-01 3.521872e-01 2.419228e-01 2.515430e-01 2.926014e-01 1.909471e-01 2.502089e-02 8.368256e-02 1.225129e-01 9.636106e-02 2.034692e-02 2.450445e-02 2.515404e-02 1.342354e-02 1.063957e-02 1.950946e-02 8.280941e-03 9.656449e-03 7.363006e-03 7.222000e-04 1.311974e-02 1.258977e-02 6.752438e-03 3.033953e-03 4.082733e-03 4.204810e-03 2.146340e-03 1.905758e-03 2.207181e-03 1.222282e-03 1.996618e-03 1.274961e-03 7.904656e-05
<GCONST> -6.970430e+01
<MIXTURE> 2 4.672380e-01
<MEAN> 39
 1.767664e+00 4.124999e-01 2.472351e+00 -8.951486e-01 -1.356705e+00 -1.199265e+00 -8.441277e-01 -4.298562e-01 -6.283708e-01 -4.163463e-02 -2.640873e-01 -1.540336e-01 8.263474e-01 8.227760e-01 -5.208356e-01 -2.318252e-01 -1.139112e-01 -1.032528e-01 -1.253349e-01 -4.288354e-02 4.569438e-02 -1.259186e-02 3.614005e-02 -3.779520e-02 -3.229563e-02 6.745359e-02 -1.338173e-01 -3.597029e-02 -1.512495e-01 -9.451066e-03 8.718566e-02 7.646989e-02 4.239767e-02 1.956527e-02 3.145308e-02 1.480369e-03 4.385483e-03 -5.127768e-04 -1.706599e-02
<VARIANCE> 39
 2.871098e+00 3.365335e+00 1.039838e+00 1.584428e+00 3.640500e-01 4.022252e-01 3.793780e-01 4.583519e-01 3.432644e-01 3.594987e-01 3.253829e-01 2.547840e-01 1.086350e-02 3.891112e-01 1.282385e-01 1.653511e-01 5.069748e-02 6.833166e-02 3.970037e-02 4.678704e-02 2.398622e-02 2.783480e-02 2.315910e-02 1.925886e-02 1.274620e-02 2.690817e-03 3.797295e-02 2.516051e-02 9.381800e-03 1.062864e-02 5.979357e-03 5.120115e-03 4.394349e-03 3.546177e-03 3.253040e-03 3.700261e-03 2.135685e-03 2.314854e-03 2.106051e-04
<GCONST> -5.002946e+01
<TRANSP> 5
 0.000000e+00 1.000000e+00 0.000000e+00 0.000000e+00 0.000000e+00
 0.000000e+00 8.800061e-01 1.199939e-01 0.000000e+00 0.000000e+00
 0.000000e+00 0.000000e+00 7.048790e-01 2.951210e-01 0.000000e+00
 0.000000e+00 0.000000e+00 0.000000e+00 7.603486e-01 2.396514e-01
 0.000000e+00 0.000000e+00 0.000000e+00 0.000000e+00 0.000000e+00
<ENDHMM>
~h "l"
<BEGINHMM>
<NUMSTATES> 5
<STATE> 2
<NUMMIXES> 2
<MIXTURE> 1 5.094072e-01
<MEAN> 39
